tree
version=v3
num_class=1
num_tree_per_iteration=1
label_index=0
max_feature_idx=114
objective=regression
feature_names=year ORTG ORTG_l ORTG_u DRTG DRTG_l DRTG_u NRTG eFG. eFG._l eFG._u TS. TS._l TS._u ORB. ORB._l ORB._u DRB. DRB._l DRB._u TRB. TRB._l TRB._u AST. AST._l AST._u STL. STL._l STL._u BLK. BLK._l BLK._u TOV. TOV_l TOV_u FTr. FTr_l FTr_u threePr threePr_l threePr_u threeP. threeP._l threeP._u twoP. twoP._l twoP._u pace O_eFG. O_eFG._l O_eFG._u O_TS. O_TS._l O_TS._u O_AST. O_AST._l O_AST._u O_STL. O_STL._l O_STL._u O_BLK. O_BLK._l O_BLK._u O_TOV. O_TOV._l O_TOV._u O_FTr. O_FTr._l O_FTr._u O_TPr. O_TPr._l O_TPr._u O_threeP. O_threeP._l O_threeP._u O_twoP. O_twoP._l O_twoP._u avg_height avg_exp top_100_recruit gini G0_min G1_min F0_min F1_min C0_min C1_min G0_pts G1_pts F0_pts F1_pts C0_pts C1_pts MAS_0 MOR_0 POM_0 PGH_0 CMP_0 SEL_last MAS_last BIH_last MOR_last POM_last SAG_last DOK_last WLK_last WOB_last DOL_last KPK_last KRA_last REW_last PGH_last CMP_last RTP_last
feature_infos=[2011:2021] [-3.6856004273841299:3.1584904934294098] [0.54858164721845804:1.09932645738454] [0.903563629271258:1.45794504899898] [-3.42999105115695:4.1440183106865698] [0.55449927144278:1.1163873767147601] [1.00100926065894:1.43995895016488] [-4.5329606690217696:3.47984589672093] [-3.0386892889274:3.53566558930028] [0.27386363636363598:0.55042067307692299] [0.47637755102040802:0.74242424242424199] [-3.15745082159376:3.4899606774580798] [0.32341254229286298:0.58125938402241195] [0.50356043549254104:0.74929417091717798] [-3.3297242232625099:3.4469220676485302] [0.040409482758620698:0.34285714285714303] [0.19038461538461501:0.58811188811188797] [-3.5392415632078902:3.3707871196697599] [0.42492668621700902:0.75110521662245799] [0.68042596348884399:0.93548387096774199] [-3.8344447058270599:3.1805377076012] [0.268771929824561:0.546875] [0.45222222222222203:0.70408488063660501] [-3.5010913673633501:3.4650714208205602] [0.145791245791246:0.56000000000000005] [0.46750000000000003:0.90371428571428603] [-2.9100047967756901:4.2015374123049796] [0.011967188491651499:0.118458022026835] [0.0686643355624693:0.26059699397432401] [-2.3080486320426998:5.12668839140572] [0:0.084330070729159406] [0.0293256012069576:0.20241835129861499] [-3.4943022404713902:3.9753121079497] [0.056266801892231703:0.21719068228105901] [0.154752303309519:0.36191665290345698] [-2.8400466468936698:3.4074035002337899] [0.063548698167791698:0.401269841269841] [0.24599190283400801:0.94011484823626001] [-3.5368155950698301:3.3960251225960998] [0:0.13752535496957399] [0.072727272727272696:0.308928571428571] [-3.1289483412051902:3.6024506620315599] [0:0.35699999999999998] [0.34260000000000002:0.64300000000000002] [-3.2979901146159398:4.1974575378762102] [0.228333333333333:0.55197132616487499] [0.47724867724867698:0.76190476190476197] [-3.3431676453073602:4.9453874147171497] [-3.1922351671473201:3.4387232731648401] [0.259483065953654:0.51700000000000002] [0.475038663779771:0.76220930232558104] [-3.4948814690661698:3.18349485307805] [0.29807178439867899:0.54945054945054905] [0.509438257127802:0.75726202624771599] [-2.8956807715660702:4.1815511038977196] [0.16852941176470601:0.63370370370370399] [0.5:0.94060721062618602] [-3.3509490501510699:5.0032751004841698] [0.0138049749039191:0.0961072176938952] [0.079987634572678407:0.23875522421296599] [-3.4379148733025899:3.9859521638432698] [0:0.048305996992754202] [0.043786946537875203:0.17071277334103699] [-3.7631799974116:4.4318086612720098] [0.057493306138921903:0.216708443416959] [0.150976349377068:0.38920995150932802] [-2.67134473393891:4.2593296543304504] [0.072727272727272696:0.43990243902439002] [0.29777777777777797:0.96086956521739098] [-3.37231905780251:4.0977805727372703] [0.016949152542372899:0.131265508684864] [0.094429469901168003:0.29545454545454503] [-3.7736657398372802:3.5472163466630202] [0.075999999999999998:0.31919999999999998] [0.37059999999999998:0.64219999999999999] [-3.6213434724474198:3.4849519359297401] [0.25080645161290299:0.53217905405405397] [0.46907894736842098:0.76666666666666705] [73.777872340425503:80.142533333333304] [0.18936026936026901:2.7942555685814798] [0:10] [0.16513993303430399:0.70304740074642202] [0:0.64666666666666694] [0:0.743443223443223] [0:0.73540372670807497] [0:0.73550995956267795] [0:0.45023569023568999] [0:0.501021897810219] [0:0.72097378277153601] [0:0.82513181019332205] [0:0.71228844738778496] [0:0.79351454458750603] [0:0.521292775665399] [0:0.62268128161888703] [1:357] [1:357] [1:357] [1:357] [1:357] [1:351] [1:351] [1:351] [1:351] [1:351] [1:351] [1:351] [1:351] [1:351] [1:351] [1:351] [1:351] [1:351] [1:351] [1:351] [1:351]
tree_sizes=2688 2735 2723 2732 2733 2731 2756 2751 2743 2762 2742 2763 2778 2776 2793 2782 2800 2786 2815 2809 2793 2814 2821 2807 2812 2813 2831 2831 2826 2821

Tree=0
num_leaves=31
num_cat=0
split_feature=113 106 114 98 112 100 86 106 31 17 76 41 114 56 23 58 27 15 41 99 100 12 47 58 57 35 103 65 100 7
split_gain=1575.45 209.193 74.9363 53.4894 37.6129 29.4422 21.7463 14.6794 12.7012 12.1528 12.2606 10.8322 10.6811 10.2735 9.62926 9.36237 8.34199 8.1 7.76721 5.88146 11.2084 4.69444 4.4046 3.78604 3.75535 3.44048 3.42095 2.88944 2.70629 1.63748
threshold=44.500000000000007 16.500000000000004 68.500000000000014 8.5000000000000018 4.5000000000000009 52.500000000000007 0.13319851361257853 34.500000000000007 0.08151464978800356 -0.16153931732455398 0.37144882910623106 0.68650682146497111 118.50000000000001 0.67819336299592159 0.74346568706668059 0.042204575907891007 0.061752076971572506 0.19418458781362002 -0.26259907759679041 104.50000000000001 112.50000000000001 0.47865441311430251 -1.2782996963567197 0.043098505848583303 -0.58537206833281996 0.3664043956969521 172.50000000000003 0.25040656446118609 64.500000000000014 -0.027708840987098346
decision_type=2 2 2 2 2 2 2 2 2 2 2 2 2 2 2 2 2 2 2 2 2 2 2 2 2 2 2 2 2 2
left_child=1 3 5 4 -1 13 11 9 -9 10 -3 -5 19 -2 15 -11 24 -18 -10 22 21 25 -4 -20 28 -21 -22 -16 -7 -14
right_child=2 7 12 6 -6 16 -8 8 18 14 -12 -13 29 -15 27 -17 17 -19 23 20 26 -23 -24 -25 -26 -27 -28 -29 -30 -31
leaf_value=0.83785851615364471 0.43197615511643622 0.6278585082153898 0.3902394617742434 0.62952517229918847 0.66689076621261023 0.41881088949417705 0.68119184204542838 0.54262041301986919 0.50452517208631475 0.57119183883039004 0.51967668686368818 0.5432639114540857 0.33878627584239512 0.51967668767647879 0.4526733228204845 0.49838482223240949 0.46785850851341293 0.37785850881143618 0.39976327073038964 0.36008073111092365 0.34640551765646793 0.43785850811604865 0.3421854321577264 0.45637702608267228 0.35627956174103831 0.41404898501610393 0.39023946092274847 0.50149486922373043 0.37315262675651822 0.34508954965280869
leaf_weight=22 34 20 21 24 31 21 30 21 21 33 22 37 1509 22 27 38 20 20 21 27 117 24 208 27 76 21 21 22 34 567
leaf_count=22 34 20 21 24 31 21 30 21 21 33 22 37 1509 22 27 38 20 20 21 27 117 24 208 27 76 21 21 22 34 567
internal_value=0.375398 0.561848 0.348471 0.657997 0.737859 0.403497 0.611485 0.506906 0.474525 0.524896 0.571192 0.577203 0.343505 0.46643 0.508692 0.532225 0.382888 0.422859 0.453801 0.357676 0.369763 0.401747 0.346592 0.431609 0.370683 0.383692 0.353076 0.474593 0.390586 0.340508
internal_weight=0 396 2742 144 53 227 91 252 90 162 42 61 2515 56 120 71 171 40 69 439 210 72 229 48 131 48 138 49 55 2076
internal_count=3138 396 2742 144 53 227 91 252 90 162 42 61 2515 56 120 71 171 40 69 439 210 72 229 48 131 48 138 49 55 2076
is_linear=0
shrinkage=1


Tree=1
num_leaves=31
num_cat=0
split_feature=113 106 114 105 100 25 66 79 31 106 17 114 56 27 67 25 58 41 92 99 100 107 12 20 85 99 35 36 73 96
split_gain=1276.12 169.446 60.7564 46.2413 22.6839 22.0306 26.765 16.9883 13.194 15.3172 15.85 7.75955 7.64754 6.10293 7.15807 6.097 6.37295 5.99918 4.0462 3.83959 7.11013 4.14282 3.2024 3.0068 3.71071 2.91444 2.31774 2.27819 2.23496 1.40683
threshold=44.500000000000007 16.500000000000004 70.500000000000014 4.5000000000000009 52.500000000000007 0.75315217391304368 -0.29900368194732246 1.8085410334346503 0.075338583233857573 34.500000000000007 -0.16153931732455398 120.50000000000001 0.67819336299592159 0.061752076971572506 0.20043686725775003 0.72955533596837963 0.042204575907891007 -0.26259907759679041 0.07063220940550137 106.50000000000001 112.50000000000001 60.500000000000007 0.47865441311430251 0.71588755856306863 0.28198362204724409 152.50000000000003 0.35519366856752305 0.19909657391462002 0.20115000000000002 86.500000000000014
decision_type=2 2 2 2 2 2 2 2 2 2 2 2 2 2 2 2 2 2 2 2 2 2 2 2 2 2 2 2 2 2
left_child=1 3 4 -1 12 6 7 -5 -3 10 -10 19 -2 23 -15 16 -12 -11 -19 21 22 -4 26 24 28 -22 -21 -18 -6 -25
right_child=2 8 11 5 13 -7 -8 -9 9 17 15 -13 -14 14 -16 -17 27 18 -20 20 25 -23 -24 29 -26 -27 -28 -29 -30 -31
leaf_value=0.35249009397294789 0.0484875008889607 0.18060188889503481 0.0065339212908464327 0.32609738886356354 0.017987443506717684 0.14339415088847832 0.14730804637074471 0.21938392863823819 0.18444381575835378 0.11755613955584439 0.15984182761561486 -0.03147176661401032 0.12271707602169202 0.07921179776841944 -0.00057463827340499215 0.07353327409787612 0.12557198300957681 0.084012276507340944 0.029228132537433078 -0.017826253717595882 -0.027511159772122346 -0.031265162952660304 0.051668693531643266 -0.033146863633936104 0.041987446546554563 0.0053433947265148166 0.0292097407579422 0.079873660206794747 -0.027720302084217902 -0.005408018682061172
leaf_weight=36 35 30 34 35 20 27 20 26 38 22 31 2058 23 22 23 33 20 26 28 22 108 197 22 33 25 36 20 24 23 41
leaf_count=36 35 30 34 35 20 27 20 26 38 22 31 2058 23 22 23 33 20 26 28 22 108 197 22 33 25 36 20 24 23 41
internal_value=0 0.167805 -0.0242344 0.254339 0.0232869 0.221622 0.247698 0.280613 0.118357 0.109946 0.128897 -0.0288971 0.0779234 0.00634083 0.0384321 0.109353 0.125113 0.0735387 0.0556057 -0.0168273 -0.0069717 -0.0257017 0.0207614 -0.00382892 0.011351 -0.0192975 0.00457184 0.100646 -0.00646089 -0.017778
internal_weight=0 396 2742 144 245 108 81 61 252 222 146 2497 58 187 45 108 75 76 54 439 208 231 64 142 68 144 42 44 43 74
internal_count=3138 396 2742 144 245 108 81 61 252 222 146 2497 58 187 45 108 75 76 54 439 208 231 64 142 68 144 42 44 43 74
is_linear=0
shrinkage=0.1


Tree=2
num_leaves=31
num_cat=0
split_feature=113 106 114 98 99 100 50 86 81 22 7 81 60 28 96 114 99 9 94 106 27 13 19 81 57 7 11 89 94 55
split_gain=1033.66 137.251 49.5486 38.2249 27.9223 19.922 19.1899 18.06 12.2153 10.2999 15.708 12.7909 9.7396 8.72718 8.4544 7.24469 6.25348 7.1377 5.15026 5.10571 4.97589 4.89623 3.65849 3.51285 2.8296 2.65872 2.12503 1.8053 1.78843 3.12651
threshold=44.500000000000007 16.500000000000004 68.500000000000014 8.5000000000000018 6.5000000000000009 54.500000000000007 0.55343656051294354 0.067161057636010227 0.46951343281882557 0.60537328168907156 0.98672443089955508 0.54202059683288917 -0.40302618527420347 0.15522223820584155 16.500000000000004 92.500000000000014 104.50000000000001 0.42062117373473201 90.500000000000014 34.500000000000007 0.061752076971572506 0.61209130799266165 0.82199163679808851 0.52883987928554255 -0.58537206833281996 0.13747161123422855 0.73385459388998808 0.33906195916788456 246.50000000000003 0.30940350877192957
decision_type=2 2 2 2 2 2 2 2 2 2 2 2 2 2 2 2 2 2 2 2 2 2 2 2 2 2 2 2 2 2
left_child=1 3 5 4 -1 13 -5 -8 12 10 22 -12 -3 18 -11 16 21 -18 -2 23 24 -4 -10 -16 26 -17 -7 -26 -27 -30
right_child=2 8 15 6 -6 20 7 -9 9 14 11 -13 -14 -15 19 25 17 -19 -20 -21 -22 -23 -24 -25 27 28 -28 -29 29 -31
leaf_value=0.35292236443721886 0.074920361775618338 0.11367528725947654 0.025912522822618484 0.13535286831228358 0.20318110823165628 -0.013523432463407517 0.16180146679930066 0.27958169221878054 0.067776589393615735 0.15450113609433175 0.13964248947028457 0.24359474658966063 0.035503964810758029 0.12403999447822572 0.13078764119873876 -0.029399199253334431 -0.018510949810345966 0.047533932162655723 0.0083367512339637389 0.051841612295670948 0.035361238451380478 -0.0275623541920125 0.1268714264035225 0.073483623117208491 -0.03185392029063646 -0.024312011047454306 0.028285723828500316 0.00077407104628426698 0.024541601538658142 -0.018221159959616869
leaf_weight=33 26 28 20 38 20 20 23 30 20 20 29 20 37 20 23 1736 30 36 21 33 38 119 22 20 43 461 31 28 21 92
leaf_count=33 26 28 20 38 20 20 23 30 20 20 29 20 37 20 23 1736 30 36 21 33 38 119 22 20 43 461 31 28 21 92
internal_value=0 0.151025 -0.021811 0.228905 0.296416 0.0229334 0.189586 0.22847 0.106521 0.119502 0.143607 0.182072 0.0691778 0.0687134 0.0966519 -0.0258495 -0.00783306 0.0175135 0.0451702 0.0814284 0.00376295 -0.0198681 0.098731 0.104135 -0.00607915 -0.0274484 0.01189 -0.0189865 -0.0215484 -0.0102741
internal_weight=0 396 2742 144 53 227 91 53 252 187 91 49 65 67 96 2515 205 66 47 76 160 139 42 43 122 2310 51 71 574 113
internal_count=3138 396 2742 144 53 227 91 53 252 187 91 49 65 67 96 2515 205 66 47 76 160 139 42 43 122 2310 51 71 574 113
is_linear=0
shrinkage=0.1


Tree=3
num_leaves=31
num_cat=0
split_feature=113 102 100 105 81 76 35 114 100 28 71 69 98 3 11 7 79 95 45 72 66 27 56 72 53 37 17 41 61 77
split_gain=837.261 112.897 40.7025 33.3896 18.4332 17.0515 14.1787 13.9414 13.0203 12.7531 11.2523 10.3642 12.5988 9.33799 8.78271 6.79914 6.02358 5.13747 4.0865 4.49133 3.53289 3.10564 2.31377 2.08496 3.47884 2.07754 2.55633 1.7511 2.46339 3.06271
threshold=44.500000000000007 16.500000000000004 66.500000000000014 4.5000000000000009 0.46785104583915604 0.32755952380952408 0.041475910638666257 68.500000000000014 26.500000000000004 0.15929889622800053 0.19813852813852803 0.21026031178313503 36.500000000000007 1.2993624672610802 0.13942560365574305 0.29611678427178556 1.7113510791162552 42.500000000000007 0.44164594293001752 -0.052912305297173244 -0.10080161208236198 0.045222870869694808 0.6426903967371157 -0.51630566333334638 0.59714734140602166 0.68439323357801607 0.18579630909188402 1.2095282723857601 0.012662773174361801 0.57818865345181158
decision_type=2 2 2 2 2 2 2 2 2 2 2 2 2 2 2 2 2 2 2 2 2 2 2 2 2 2 2 2 2 2
left_child=1 3 7 -1 -5 -6 -7 9 10 20 13 14 -13 17 -10 -4 -9 -3 25 -20 22 -16 -2 24 -23 27 -27 -17 -29 -30
right_child=2 8 15 4 5 6 -8 16 11 -11 -12 12 -14 -15 21 18 -18 -19 19 -21 -22 23 -24 -25 -26 26 -28 28 29 -31
leaf_value=0.28995959278610023 0.03876869186111119 0.0782568057152358 -0.025964758641870839 0.10538640924944327 0.27973743320575783 0.22268980401417904 0.12625320946176849 -0.027943098601305262 0.11089532160096699 0.10753954471303867 0.059169423473732809 0.17199255302548411 0.063704979419708249 0.18417081102248162 0.014019141767335975 -0.02198864054894939 0.030086895492341781 0.1451584465801716 0.034162709287234715 -0.018106367126587902 0.054597290582729108 0.04104465810582042 -0.0016210373188998248 0.031624331573645276 0.10002638712525368 0.023579472193011531 -0.016448738406866028 -0.031983233136790142 0.029461554575849466 -0.013707313864004046
leaf_weight=36 23 22 1926 26 21 31 30 53 27 26 21 22 21 31 23 388 27 24 35 31 33 20 37 21 20 27 39 28 27 42
leaf_count=36 23 22 1926 26 21 31 30 53 27 26 21 22 21 31 23 388 27 24 35 31 33 20 37 21 20 27 39 28 27 42
internal_value=0 0.135922 -0.0196299 0.206556 0.178755 0.202018 0.175262 0.0239236 0.0955599 0.0456255 0.124054 0.0774272 0.119108 0.14175 0.0612806 -0.0230381 -0.00835798 0.113162 -0.0139025 0.00961208 0.0283163 0.045333 0.0138617 0.0571399 0.0705355 -0.0167191 -7.35613e-05 -0.0189843 -0.00696676 0.00318485
internal_weight=0 396 2742 144 108 82 61 199 252 119 98 154 43 77 111 2543 80 46 617 66 93 84 60 61 40 551 66 485 97 69
internal_count=3138 396 2742 144 108 82 61 199 252 119 98 154 43 77 111 2543 80 46 617 66 93 84 60 61 40 551 66 485 97 69
is_linear=0
shrinkage=0.1


Tree=4
num_leaves=31
num_cat=0
split_feature=107 102 100 72 96 78 100 80 60 98 71 114 12 15 53 3 114 99 100 72 79 37 83 22 104 20 66 114 110 94
split_gain=679.203 91.666 33.1302 27.0629 31.3721 14.4143 10.3184 10.1894 9.39235 14.5923 9.11432 8.9076 8.13852 7.80683 7.10642 6.01026 5.59611 5.38965 6.45636 4.28624 3.78102 3.57058 3.38664 5.45781 3.19283 2.28798 2.17016 1.98289 3.25222 2.05436
threshold=44.500000000000007 16.500000000000004 58.500000000000007 -1.10012270938435 12.500000000000002 77.617506369779562 26.500000000000004 5.5000000000000009 0.84036753201719605 40.500000000000007 0.19813852813852803 92.500000000000014 0.45594494135639657 0.18073147440794504 0.61500347895754215 1.3027524126921304 54.500000000000007 104.50000000000001 110.50000000000001 -0.60697753795589582 1.8835165306998751 0.56333740262760157 0.35894925087304258 0.5645411458391002 56.500000000000007 0.56978102110276152 0.54913002155930712 158.50000000000003 191.50000000000003 246.50000000000003
decision_type=2 2 2 2 2 2 2 2 2 2 2 2 2 2 2 2 2 2 2 2 2 2 2 2 2 2 2 2 2 2
left_child=1 3 8 7 -5 -6 10 -1 9 -2 12 17 -3 20 21 -14 19 22 25 -11 -8 -15 26 -24 -18 -19 -4 28 29 -13
right_child=2 6 11 4 5 -7 13 -9 -10 16 -12 27 15 14 -16 -17 24 18 -20 -21 -22 -23 23 -25 -26 -27 -28 -29 -30 -31
leaf_value=0.085597737696021803 0.11251751290013393 0.074485090960349359 -0.023844748471869903 0.29154909467576323 0.10687746152813947 0.21734278864330717 0.022746286903949163 0.17023486969145862 -0.026629734816758528 0.083907421380281455 0.053252480462903075 -0.021036856653631593 0.11587288562079956 0.096371292096117278 0.12139988721985567 0.18143601180226715 -0.025098484071592493 0.070377831012010575 -0.0096751716165315547 0.018438022881746292 0.075618687591382447 0.045650575416428703 0.050795987397432331 -0.012435045769048293 0.029001097232103347 0.022545005381107333 0.010521496193749565 -0.024008672923231736 0.02237211734056473 -0.0032576769987742111
leaf_weight=25 24 21 147 37 21 27 38 33 23 20 21 487 29 23 38 27 24 20 42 20 21 35 20 43 20 20 21 1716 20 75
leaf_count=25 24 21 147 37 21 27 38 33 23 20 21 487 29 23 38 27 24 20 42 20 21 35 20 43 20 20 21 1716 20 75
internal_value=0 0.122422 -0.0176802 0.186417 0.222353 0.169014 0.0862507 0.133753 0.0313932 0.0437499 0.111649 -0.0201423 0.127575 0.0701926 0.0877865 0.147484 0.024102 -0.00431602 0.0177085 0.0511727 0.0415653 0.065764 -0.0121343 0.0076383 -0.000507765 0.0464614 -0.019549 -0.022298 -0.017254 -0.0186642
internal_weight=0 396 2742 143 85 48 253 58 131 108 98 2611 77 155 96 56 84 313 82 40 59 58 231 63 44 40 168 2298 582 562
internal_count=3138 396 2742 143 85 48 253 58 131 108 98 2611 77 155 96 56 84 313 82 40 59 58 231 63 44 40 168 2298 582 562
is_linear=0
shrinkage=0.1


Tree=5
num_leaves=31
num_cat=0
split_feature=113 108 100 35 72 109 100 29 42 6 28 51 97 22 67 41 36 114 50 7 41 57 45 45 72 28 105 73 41 37
split_gain=551.36 76.0931 27.0418 20.6644 20.8214 16.679 15.5711 12.0336 10.2912 14.2944 9.70361 7.51536 10.3602 7.20957 8.815 6.77532 6.62246 5.67926 5.99449 4.54118 3.59658 3.32152 3.11978 2.82461 3.79789 2.04257 1.77966 3.29547 1.73565 2.70423
threshold=44.500000000000007 10.500000000000002 66.500000000000014 1.0250975872477652 -1.2176518121255546 6.5000000000000009 26.500000000000004 1.8831927973589051 0.23095000000000002 1.2221493486339252 0.14370717381198053 -0.80604516088098288 28.500000000000004 0.63897313022520164 0.21875235849056604 -0.26259907759679041 0.1724667635684495 68.500000000000014 0.58280611545317462 0.13747161123422855 0.82596627498925057 -0.83223117217624687 0.39025769782584707 0.44164594293001752 -0.052912305297173244 0.14895766744806602 212.50000000000003 0.21125000000000002 1.1858937252034802 0.49021230241505603
decision_type=2 2 2 2 2 2 2 2 2 2 2 2 2 2 2 2 2 2 2 2 2 2 2 2 2 2 2 2 2 2
left_child=1 3 8 4 -1 -6 7 13 17 10 -10 15 -13 14 16 -8 -3 18 22 -4 -14 -17 -2 26 -25 -18 28 -28 -21 -30
right_child=2 6 19 -5 5 -7 11 -9 9 -11 -12 12 20 -15 -16 21 25 -19 -20 23 -22 -23 -24 24 -26 -27 27 -29 29 -31
leaf_value=0.13618247845972128 -0.029217336699366572 0.16901884981645987 -0.021588838783689359 0.10148434266448021 0.31774729402227836 0.19944111511397822 0.088801124785095456 0.18243365446920509 0.041202690452337265 -0.0097117245818177864 0.13744478091597556 0.14540897566197522 0.091861290662061612 0.053140701560510532 0.05749296924180311 0.061267556209603086 0.083929289904401905 -0.01889937774079745 0.059821917613347375 -0.017884893566108128 0.03400402011519129 0.014552941792127159 0.023771389782428744 0.029979863762855531 -0.016605782892022813 0.12533027976751329 0.034964451342821126 -0.021754246879191627 0.023127163008407312 -0.012537820592522623
leaf_weight=22 20 26 1736 20 22 26 28 20 22 24 20 23 21 27 23 23 22 61 27 569 22 45 25 35 35 26 20 21 27 100
leaf_count=22 20 26 1736 20 22 26 28 20 22 24 20 23 21 27 23 23 22 61 27 569 22 45 25 35 35 26 20 21 27 100
internal_value=0 0.1103 -0.0159296 0.191129 0.216742 0.253665 0.0865274 0.110454 0.0195706 0.0518526 0.0870323 0.0652596 0.0912361 0.098844 0.111566 0.0474007 0.128372 0.00355089 0.0225712 -0.0187076 0.0622599 0.0303535 0.000220845 -0.0125097 0.00668704 0.106355 -0.014333 0.00591341 -0.0155257 -0.0049555
internal_weight=0 396 2742 90 70 48 306 144 199 66 42 162 66 124 97 96 74 133 72 2543 43 68 45 807 70 48 737 41 696 127
internal_count=3138 396 2742 90 70 48 306 144 199 66 42 162 66 124 97 96 74 133 72 2543 43 68 45 807 70 48 737 41 696 127
is_linear=0
shrinkage=0.1


Tree=6
num_leaves=31
num_cat=0
split_feature=107 106 25 114 111 35 92 98 31 105 17 34 90 27 15 57 90 114 9 72 107 28 100 106 87 83 45 22 114 108
split_gain=447.285 63.3946 22.9045 22.0351 18.3282 16.1411 13.74 10.0021 7.55873 7.26227 8.15194 6.80483 4.97277 4.38664 5.02699 4.03417 3.82821 3.436 5.01753 5.63278 3.969 2.55529 2.25013 3.23076 2.03979 1.89078 1.77955 1.72723 1.30638 2.57689
threshold=44.500000000000007 16.500000000000004 0.75315217391304368 68.500000000000014 12.500000000000002 -0.10941417359508149 0.10108091876906951 34.500000000000007 0.075338583233857573 36.500000000000007 -0.27764997904101146 0.22215812572786653 0.096340782408626605 0.061541901773527606 0.19571803665202001 -0.74515054890397636 0.045288414798007659 92.500000000000014 0.41786796536796555 -0.96636402914443231 96.500000000000014 0.16085380739541202 64.500000000000014 62.500000000000007 0.071838294448913917 0.38135595913373704 0.3997916666666666 0.6286096412937231 158.50000000000003 182.50000000000003
decision_type=2 2 2 2 2 2 2 2 2 2 2 2 2 2 2 2 2 2 2 2 2 2 2 2 2 2 2 2 2 2
left_child=1 2 4 7 5 -1 -7 -2 -3 10 -10 -6 16 22 -15 -14 -12 18 -5 -20 -21 24 23 26 -11 -24 -9 -17 29 -19
right_child=3 8 -4 17 11 6 -8 13 9 21 12 -13 15 14 -16 27 -18 28 19 20 -22 -23 25 -25 -26 -27 -28 -29 -30 -31
leaf_value=0.26827938902378085 0.083195389118045582 0.1153431858146383 0.074531063009053475 -0.019946556229074049 0.081857657195492234 0.1181063799597323 0.22646455304189161 -0.021733737059614875 0.12983439006299402 0.052474579192698004 0.062945951484143739 0.16245241977274419 0.077914151151975003 0.065297832970435801 0.0011176031568776008 0.049236701141026892 0.12481848357245327 -0.015633391577015973 0.053486794730027522 -0.019266858605705962 0.027408838169328098 0.070942007545381783 -0.019694504365324977 0.043988593729833769 0.016062206700444222 0.012171135511663225 0.018487791920250112 0.0086322220042347915 -0.01952896564243696 0.013981252668365356
leaf_weight=25 20 31 30 106 22 25 22 22 24 25 20 20 30 26 23 22 20 563 24 49 29 20 60 24 40 27 22 20 1716 31
leaf_count=25 20 31 30 106 22 25 22 22 24 25 20 20 30 26 23 22 20 563 24 49 29 20 60 24 40 27 22 20 1716 31
internal_value=0 0.0993463 0.152276 -0.0143476 0.172735 0.203359 0.168827 0.0157081 0.0691009 0.0626144 0.0769455 0.120236 0.0656122 0.00909174 0.0351724 0.0499066 0.0938822 -0.0170213 -0.00471092 0.0111222 -0.00191307 0.0396846 0.000846876 0.0144752 0.030067 -0.00980517 -0.00162297 0.0299012 -0.0181298 -0.0140878
internal_weight=0 396 144 2742 114 72 47 224 252 221 136 42 112 204 49 72 40 2518 208 102 78 85 155 68 65 87 44 42 2310 594
internal_count=3138 396 144 2742 114 72 47 224 252 221 136 42 112 204 49 72 40 2518 208 102 78 85 155 68 65 87 44 42 2310 594
is_linear=0
shrinkage=0.1


Tree=7
num_leaves=31
num_cat=0
split_feature=100 106 25 110 91 73 114 106 44 88 89 47 45 46 60 65 14 58 112 9 89 54 73 99 69 55 83 2 114 101
split_gain=366.004 62.8189 19.7275 17.1417 18.2006 13.9319 8.98079 8.18879 7.20957 8.31847 7.14387 6.65216 5.42351 5.84587 5.09353 4.80118 4.67675 7.55109 4.33212 3.82494 4.91909 8.55605 3.75622 3.5615 2.43992 1.86494 2.06273 1.82215 1.03841 2.31591
threshold=50.500000000000007 16.500000000000004 0.77305718475073359 8.5000000000000018 0.15688110313952103 0.17335000000000003 92.500000000000014 34.500000000000007 0.20017100688399503 0.14099284416791005 0.24831557258885903 -1.3748139663271397 0.36519270486925454 0.63635810997513109 -0.043560116200198291 0.24436722248892553 0.71328598581731806 0.04201128405984516 44.500000000000007 0.41882103569551304 0.27732206144558752 0.059057780183289811 0.18775000000000003 104.50000000000001 -1.0320322517441449 0.32806734578381452 0.17687577620461403 0.92668246100276308 158.50000000000003 140.50000000000003
decision_type=2 2 2 2 2 2 2 2 2 2 2 2 2 2 2 2 2 2 2 2 2 2 2 2 2 2 2 2 2 2
left_child=1 2 3 4 -1 -5 11 12 18 14 -7 -2 -3 16 -10 -15 27 -18 -9 25 23 24 -11 -21 -22 26 -13 -14 29 -8
right_child=6 7 -4 5 -6 10 28 8 9 22 -12 19 13 15 -16 -17 17 -19 -20 20 21 -23 -24 -25 -26 -27 -28 -29 -30 -31
leaf_value=0.27021966278553011 0.050061095237731938 0.1225776209216565 0.046103728786110881 0.055676920064117598 0.15181618755733647 0.1901082449147235 -0.017367059715819547 0.036090525870139785 0.10878579875570722 0.060379833579063416 0.10838940188288688 -0.022582173279740596 0.0083125410220501097 0.064088282104404204 0.045404286925414844 0.13170896598270962 0.1213330513238907 0.043462927535063395 -0.024975954705760594 -0.022222575130449101 0.03174430238349097 0.068856352674109597 0.0044317771183947727 0.022761666650573414 -0.0091235782640675719 -0.021190363168716433 0.016948534096732287 0.050017755381995814 -0.017576068669279694 -0.004255434942017332
leaf_weight=20 25 20 20 23 37 23 379 26 32 20 20 22 22 21 21 21 20 33 21 66 21 28 30 24 48 117 33 20 1716 209
leaf_count=20 25 20 20 23 37 23 379 26 32 20 20 22 22 21 21 21 20 33 21 66 21 28 30 24 48 117 33 20 1716 209
internal_value=0 0.0834689 0.138213 0.153191 0.193361 0.118498 -0.0139736 0.0579691 0.0412603 0.0560698 0.152099 0.000184935 0.0739329 0.0668315 0.0836724 0.0978986 0.0530965 0.0728479 0.0088055 -0.00328833 0.00661105 0.0222338 0.026811 -0.0102268 0.00331447 -0.014051 0.00113625 0.0281722 -0.0163333 -0.0127066
internal_weight=0 450 143 123 57 66 2688 307 150 103 43 384 157 137 53 42 95 53 47 359 187 97 50 90 69 172 55 42 2304 588
internal_count=3138 450 143 123 57 66 2688 307 150 103 43 384 157 137 53 42 95 53 47 359 187 97 50 90 69 172 55 42 2304 588
is_linear=0
shrinkage=0.1


Tree=8
num_leaves=31
num_cat=0
split_feature=100 106 25 33 98 71 21 114 113 31 48 47 90 105 90 44 33 32 9 28 71 36 8 29 42 97 55 83 10 7
split_gain=296.463 50.8833 15.9792 14.6437 14.6842 15.111 13.4708 7.27444 6.91222 6.58377 6.57228 5.38825 4.99869 4.33277 4.38331 3.98611 3.63709 4.48206 3.0982 4.27171 3.05117 3.17643 2.31829 2.25518 1.86259 1.69804 1.5106 1.69214 1.31802 0.872546
threshold=50.500000000000007 16.500000000000004 0.77305718475073359 0.12964121075795951 8.5000000000000018 0.16642456941274153 0.45946187258687254 92.500000000000014 48.500000000000007 0.075338583233857573 -1.7390274894420847 -1.3748139663271397 0.09786568232124096 36.500000000000007 0.046324768606494753 0.20017100688399503 0.13597797616628152 -0.90022869553262785 0.41882103569551304 0.17091251059155452 0.18033060109289603 0.20714609186451702 0.47632787181270303 0.52212878588401768 0.22210000000000005 144.50000000000003 0.32806734578381452 0.20210103911464053 0.64903212584468817 0.11579534461437201
decision_type=2 2 2 2 2 2 2 2 2 2 2 2 2 2 2 2 2 2 2 2 2 2 2 2 2 2 2 2 2 2
left_child=1 2 3 4 6 -6 -1 11 9 -3 -11 -2 13 14 -12 -10 17 23 26 20 21 25 -19 -14 -23 -20 27 -13 -22 -9
right_child=7 8 -4 -5 5 -7 -8 29 15 10 12 18 16 -15 -16 -17 -18 22 19 -21 28 24 -24 -25 -26 -27 -28 -29 -30 -31
leaf_value=0.1451697888699445 0.045054983705282214 0.10193885004808825 0.041493355780839923 0.063941354372284639 0.17689928351729006 0.07531764535233379 0.2585652281343937 -0.015866492383599634 -0.016603743359446529 0.10474914361974781 0.055974377341568474 -0.018912195414304736 0.02723966517528011 0.037024676514168582 0.11580498646944762 0.041427092022936922 0.071809393040497202 -0.01009099597952539 -0.01850664702153975 0.049623997528105979 -0.022555547842273007 0.012789541624841236 0.029989715106785299 0.071565011345470941 0.055430413186550148 0.018321921569960459 -0.019071327019323653 0.016456036317733028 0.0074958269298076629 -0.011453410858297583
leaf_weight=22 25 31 20 22 27 32 20 1695 20 22 25 24 22 30 24 29 22 31 31 20 54 21 27 24 20 21 117 31 20 609
leaf_count=22 25 31 20 22 27 32 20 1695 20 22 25 24 22 30 24 29 22 31 31 20 54 21 27 24 20 21 117 31 20 609
internal_value=0 0.075122 0.124392 0.137872 0.153975 0.121804 0.199168 -0.0125762 0.0521722 0.0587114 0.0528081 0.000166442 0.047234 0.0669547 0.0852792 0.017741 0.0348694 0.0270551 -0.0029595 0.00594995 0.00071952 0.0127768 0.00856727 0.0503659 0.03359 -0.00363357 -0.0126459 0.00102263 -0.0144336 -0.0147
internal_weight=0 450 143 123 101 59 42 2688 307 258 227 384 205 79 49 49 126 104 359 187 167 93 58 46 41 52 172 55 74 2304
internal_count=3138 450 143 123 101 59 42 2688 307 258 227 384 205 79 49 49 126 104 359 187 167 93 58 46 41 52 172 55 74 2304
is_linear=0
shrinkage=0.1


Tree=9
num_leaves=31
num_cat=0
split_feature=106 99 100 98 109 2 50 71 46 60 51 57 89 66 114 91 114 45 17 96 32 114 100 45 81 84 99 76 76 47
split_gain=240.434 29.6741 19.2765 16.2293 10.0223 11.1714 10.9141 10.812 9.18526 5.86799 6.57084 5.30174 5.12268 4.9144 4.07233 3.59395 3.05095 2.81945 2.61028 2.43196 3.25603 4.77738 3.11574 2.77401 1.50903 1.32543 1.37451 1.58313 2.31426 1.09424
threshold=40.500000000000007 6.5000000000000009 56.500000000000007 4.5000000000000009 18.500000000000004 0.99454061090727353 0.55343656051294354 0.18430966294205151 0.58518634466308861 -0.71680305877351536 -0.92369093093571741 0.51230531139271962 0.17513952739226155 -0.76589742876808287 68.500000000000014 0.19919518713500353 120.50000000000001 0.39780926675663558 0.21654978464742852 102.50000000000001 -1.2780640000927199 74.500000000000014 68.500000000000014 0.44164594293001752 0.51250988803903008 1.0000000180025095e-35 150.50000000000003 0.35131343077771654 0.33785685756129152 0.93960689229384708
decision_type=2 2 2 2 2 2 2 2 2 2 2 2 2 2 2 2 2 2 2 2 2 2 2 2 2 2 2 2 2 2
left_child=1 3 11 -1 5 6 -3 -8 -6 10 -10 14 -11 -14 15 -2 19 -17 -15 20 21 -4 -21 25 -19 -24 27 28 -27 -29
right_child=2 4 16 -5 8 -7 7 -9 9 12 -12 -13 13 18 -16 17 -18 24 -20 22 -22 -23 23 -25 -26 26 -28 29 -30 -31
leaf_value=0.2113546344536272 0.052608734630048275 0.06002261561732139 0.047649717703461651 0.099781206599436706 0.10052206973778084 0.03073476350307465 0.17103498540818693 0.077307849228382117 0.03773705255240202 1.7779340085230377e-05 0.11361399910279685 0.070347748425873852 0.078431318507396763 0.0039896388788922474 -0.015743013085990114 -0.016237361154476691 -0.013748037282857874 0.0084802204184234158 0.047991851624101405 0.036484190008857033 -0.018087575707620786 -0.021468852311372758 0.018055051139422826 0.022807164215727857 0.04686117488003913 -0.01374410669773053 0.010882654063629383 -0.021122599456269861 0.024341800974475015 0.00026618629693984989
leaf_weight=22 35 31 20 32 32 25 32 20 25 38 21 22 28 26 29 22 2055 20 28 22 206 20 21 38 21 39 33 118 27 30
leaf_count=22 35 31 20 32 32 25 32 20 25 38 21 22 28 26 29 22 2055 20 28 22 206 20 21 38 21 39 33 118 27 30
internal_value=0 0.0768929 -0.00996452 0.145237 0.0648321 0.0893365 0.106988 0.134986 0.0514661 0.0420095 0.0723765 0.025026 0.0303688 0.0444339 0.017175 0.026916 -0.0119476 0.0126423 0.0268056 -0.0055019 -0.013018 0.0130904 0.000135169 -0.00247816 0.0281388 -0.00606339 -0.00811395 -0.0110433 0.00183649 -0.016787
internal_weight=0 360 2778 54 306 108 83 52 198 166 46 149 120 82 127 98 2629 63 54 574 246 40 328 306 41 268 247 214 66 148
internal_count=3138 360 2778 54 306 108 83 52 198 166 46 149 120 82 127 98 2629 63 54 574 246 40 328 306 41 268 247 214 66 148
is_linear=0
shrinkage=0.1


Tree=10
num_leaves=31
num_cat=0
split_feature=106 102 72 6 96 100 50 25 30 65 37 37 57 74 3 103 114 52 3 100 99 98 5 63 11 103 7 61 52 60
split_gain=194.751 24.5175 15.9142 17.5038 18.0126 15.614 9.51281 8.88878 7.27252 5.967 7.36822 10.8314 4.29441 3.85735 3.39005 3.37126 3.29859 3.50179 2.64438 2.56902 7.64204 4.57837 2.72884 4.3245 2.15447 2.18465 1.76981 1.22985 1.17125 0.921649
threshold=40.500000000000007 16.500000000000004 -1.10012270938435 1.1715001197506651 12.500000000000002 56.500000000000007 0.57658957219251361 0.6292286422578186 0.024948407657230855 0.25040656446118609 0.51550636843740261 0.57159063284985001 0.51230531139271962 0.46930000000000005 1.2610742014414003 26.500000000000004 68.500000000000014 0.4374042174344816 1.2581309268098353 116.50000000000001 124.50000000000001 158.50000000000003 0.90120321898353317 -0.22559216510983196 0.83401698710848859 106.50000000000001 1.2854224201204503 0.015162591414915601 0.42403953893484009 -0.82194217220307886
decision_type=2 2 2 2 2 2 2 2 2 2 2 2 2 2 2 2 2 2 2 2 2 2 2 2 2 2 2 2 2 2
left_child=1 2 8 4 -4 12 -5 -3 -1 13 -11 -12 16 15 -13 -9 17 18 -2 20 22 -22 24 -24 29 26 27 -26 -15 -7
right_child=5 7 3 6 -6 19 -8 9 -10 10 11 14 -14 28 -16 -17 -18 -19 -20 -21 21 -23 23 -25 25 -27 -28 -29 -30 -31
leaf_value=0.017003262690875844 0.025732917821890602 0.10813545986840672 0.23311205603506255 0.03131956489698496 0.10795968511830206 -0.0035525978657237273 0.12885320648550988 0.07085355679419908 0.089389928954520401 0.0056665803394502119 0.12829659886968633 0.02057092610746622 0.063312972523272046 -0.016458724705236301 0.070820345716743643 0.020001725072506818 -0.014168711674624477 0.047977293094031905 -0.017446066354117964 -0.012332934151121631 0.0039788913320411342 0.069257194371450517 -0.011803684498255071 0.050047133564949033 -0.020478906407952309 0.030596218481659887 0.014284537326205861 0.0076389643408003305 0.017354883663356305 -0.017618013748935624
leaf_weight=23 37 22 23 20 23 57 20 22 35 21 24 25 22 21 29 32 29 38 23 2094 22 21 26 20 60 20 33 21 20 255
leaf_count=23 37 22 23 20 23 57 20 22 35 21 24 25 22 21 29 32 29 38 23 2094 22 21 26 20 60 20 33 21 20 255
internal_value=0 0.0692036 0.101165 0.128466 0.170536 -0.00896807 0.0800864 0.0478956 0.0606849 0.0410643 0.0582442 0.0723998 0.0225234 0.023161 0.0475567 0.0407191 0.0154575 0.0242244 0.00918097 -0.0107529 -0.00456843 0.035859 -0.00810172 0.015088 -0.0104935 0.000111925 -0.0052362 -0.0131891 3.57184e-05 -0.0150484
internal_weight=0 360 144 86 46 2778 40 216 58 194 99 78 149 95 54 54 127 98 60 2629 535 43 492 46 446 134 114 81 41 312
internal_count=3138 360 144 86 46 2778 40 216 58 194 99 78 149 95 54 54 127 98 60 2629 535 43 492 46 446 134 114 81 41 312
is_linear=0
shrinkage=0.1


Tree=11
num_leaves=31
num_cat=0
split_feature=107 102 22 86 83 22 50 100 47 89 68 96 9 40 36 100 58 48 79 32 39 14 7 99 100 99 100 99 41 17
split_gain=158.132 23.3599 13.8401 16.3472 14.8844 14.2701 10.7268 8.69831 6.15182 5.00375 3.82254 4.66672 3.51302 4.18647 5.39567 3.03101 3.33595 2.8945 2.74118 2.36591 2.00853 1.3701 1.30939 1.79349 3.189 4.50985 2.89456 1.90032 2.69798 1.77799
threshold=44.500000000000007 16.500000000000004 0.65483315295815314 0.13319851361257853 0.15967784799870352 0.60656276077417959 0.56543068459270063 66.500000000000014 -1.2581592254340548 0.36867564421535709 0.63536597662937855 16.500000000000004 0.41652709967936458 0.21911323626694754 0.17672859986287301 50.500000000000007 0.044473977832437402 -0.84667563789120692 1.7390398003254501 -1.256287578187185 0.04514601518699881 -0.097780097600903629 0.13747161123422855 86.500000000000014 116.50000000000001 124.50000000000001 80.500000000000014 104.50000000000001 1.0637271345655102 -1.2111188757601898
decision_type=2 2 2 2 2 2 2 2 2 2 2 2 2 2 2 2 2 2 2 2 2 2 2 2 2 2 2 2 2 2
left_child=1 2 3 4 -1 -6 -5 8 -2 15 11 18 19 14 -14 16 -10 -16 -3 -13 -21 -17 -9 -24 25 26 -25 -28 -29 -26
right_child=7 10 -4 6 5 -7 -8 22 9 -11 -12 12 13 -15 17 21 -18 -19 -20 20 -22 -23 23 24 29 -27 27 28 -30 -31
leaf_value=0.02232626642410954 0.061435497196560551 0.094474214278161536 0.014225559802725912 0.20822045039385559 0.048878128648820247 0.1541854966552027 0.10464999984949828 -0.01165722927791045 -0.00973833412530699 0.037564714424508185 0.082764990329742438 0.046862967424094681 0.099536798931658274 0.0069866930367425088 0.016963403281787859 0.0074800625722855332 0.039075843098440338 0.061642350436284625 0.042117917276918888 0.034783221269026401 -0.0026079148054122927 -0.022505407978314906 -0.016937057772924851 0.034475455805659298 0.019246902423245567 0.037441444598339702 -0.016570374039532262 -0.0069134388928828033 0.037080937772989278 -0.010536792308769444
leaf_weight=30 22 20 20 20 22 31 20 1736 28 38 20 20 20 24 29 20 28 29 20 20 51 64 143 20 21 37 79 46 20 440
leaf_count=30 22 20 20 20 22 31 20 1736 28 38 20 20 20 24 29 20 28 29 20 20 51 64 143 20 21 37 79 46 20 440
internal_value=0 0.0590703 0.0913761 0.103921 0.0786127 0.110473 0.156435 -0.00853094 0.0115487 0.00538295 0.0408105 0.0372092 0.0307663 0.0435096 0.0547475 -0.0033521 0.0146688 0.0393029 0.0682961 0.0164826 0.0079248 -0.015366 -0.0101108 -0.00677992 -0.00458917 0.00588804 -0.00118757 -0.00610661 0.00641819 -0.00918005
internal_weight=0 396 143 123 83 53 40 2742 200 178 253 233 193 102 78 140 56 58 40 91 71 84 2542 806 663 202 165 145 66 461
internal_count=3138 396 143 123 83 53 40 2742 200 178 253 233 193 102 78 140 56 58 40 91 71 84 2542 806 663 202 165 145 66 461
is_linear=0
shrinkage=0.1


Tree=12
num_leaves=31
num_cat=0
split_feature=106 105 101 81 71 37 49 45 16 69 79 57 25 24 111 73 114 47 11 51 45 84 1 95 7 23 94 53 41 96
split_gain=129.1 18.0164 10.0547 8.43423 9.88426 10.5091 9.44504 10.0524 6.21896 6.15342 6.12794 4.72316 4.63404 4.12999 4.72701 3.59695 2.49946 2.45804 2.02244 1.1468 1.62873 1.28604 1.1615 1.1045 1.34798 1.36965 2.64303 1.43975 1.30948 2.62057
threshold=40.500000000000007 4.5000000000000009 52.500000000000007 0.46785104583915604 0.20245255997135703 0.58678402730917312 0.36283498759305255 0.40810661764705908 0.46579670329670358 -0.73813505488042186 1.8835165306998751 -0.79980033529062033 0.6663003663003666 0.35656006847183358 44.500000000000007 0.20995000000000003 56.500000000000007 -0.37400203671849297 0.51943133258041807 -0.29661969317755249 0.44164594293001752 0.15323024054982801 1.5997205605694502 80.500000000000014 -0.10198930218229597 -0.78597012963175938 212.50000000000003 0.58379903651529153 0.42558421746978409 156.50000000000003
decision_type=2 2 2 2 2 2 2 2 2 2 2 2 2 2 2 2 2 2 2 2 2 2 2 2 2 2 2 2 2 2
left_child=1 -1 13 11 5 6 7 -5 12 -8 -11 -3 -7 -2 15 -15 17 -4 -13 20 21 23 -21 -18 -25 26 -26 -27 -29 -30
right_child=2 3 16 4 -6 8 9 -9 -10 10 -12 18 -14 14 -16 -17 19 -19 -20 22 -22 -23 -24 24 25 27 -28 28 29 -31
leaf_value=0.1234571504406631 -0.011338830347461947 0.052078835673164584 0.034106377103867443 0.17322685465216636 -0.0058095232731747359 0.061634528033790138 0.026771598334970149 0.072965142577886583 0.082035916546980545 0.1084202875660078 0.044331460546702145 -0.022742957253940405 0.0049416490131989127 0.034965380059706196 0.065233148968425289 -0.01609464002434503 -0.01539635773876618 -0.0033181098565735201 0.018310281479110322 -0.010698987444458508 0.015317252342190061 -0.011394797516957895 0.011913672543090323 -0.011616826962821092 -0.0020657384051726417 0.024976764693856242 0.046287800632417206 -0.010474635454097598 0.032179419323801993 -0.0094840493881040155
leaf_weight=36 29 30 26 20 22 21 29 20 24 37 25 20 46 37 29 22 58 54 30 1834 35 323 23 79 26 20 20 101 26 36
leaf_count=36 29 30 26 20 22 21 29 20 24 37 25 20 46 37 29 22 58 54 30 1834 35 323 23 79 26 20 20 101 26 36
internal_value=0 0.0563445 -0.00730166 0.0488875 0.058126 0.064462 0.0825958 0.123096 0.0383572 0.0647936 0.082578 0.0207102 0.0227111 0.0213895 0.032175 0.0159261 -0.00856317 0.00884485 0.00188899 -0.00910274 -0.00572687 -0.00679587 -0.0104189 -0.00273725 -0.000353397 0.00353224 0.0189575 -0.000345157 -0.00345214 0.00798773
internal_weight=0 360 2778 324 244 222 131 40 91 91 62 80 67 117 88 59 2661 80 50 2581 724 689 1857 366 308 229 46 183 163 62
internal_count=3138 360 2778 324 244 222 131 40 91 91 62 80 67 117 88 59 2661 80 50 2581 724 689 1857 366 308 229 46 183 163 62
is_linear=0
shrinkage=0.1


Tree=13
num_leaves=31
num_cat=0
split_feature=109 106 72 94 108 30 17 27 107 31 25 81 47 114 64 73 23 74 37 41 111 100 26 66 103 11 9 69 57 19
split_gain=104.75 20.4792 11.7809 13.6519 9.94297 9.80896 8.48975 4.99818 4.74982 5.04401 3.2845 4.30774 2.97312 2.76064 3.83005 2.51947 2.26503 2.24855 1.77026 1.68442 1.68145 2.51209 1.13076 1.08303 1.002 0.948335 0.944751 0.785513 1.19736 1.7456
threshold=52.500000000000007 16.500000000000004 -1.10012270938435 16.500000000000004 6.5000000000000009 0.024948407657230855 0.55214666866181361 0.070519632974013105 52.500000000000007 0.073569883530247557 0.6528318978318981 0.50852415226822856 0.38734482401547304 70.500000000000014 0.15300969876746104 0.19005000000000002 0.47640978980041204 0.46930000000000005 0.56333740262760157 0.54788059666897804 62.500000000000007 70.500000000000014 0.30264089898057861 -0.72210403196225437 84.500000000000014 1.9442543981434453 0.42505060728744953 -0.47670608890419747 -1.0709383870299549 0.82951093951093957
decision_type=2 2 2 2 2 2 2 2 2 2 2 2 2 2 2 2 2 2 2 2 2 2 2 2 2 2 2 2 2 2
left_child=1 2 5 4 -4 -1 -5 8 9 -3 11 -11 15 14 16 23 20 22 -14 -19 26 -22 -17 -12 -18 27 -2 28 29 -15
right_child=13 7 3 6 -6 -7 -8 -9 -10 10 12 -13 18 25 -16 17 24 19 -20 -21 21 -23 -24 -25 -26 -27 -28 -29 -30 -31
leaf_value=-0.010517278184061465 -0.017415247737829175 0.066795003111474224 0.19112683713436129 0.10826347638808548 0.091412404626607893 0.074038958811091599 0.022015926569700243 0.063845026649926848 -0.012401867123941581 0.014190044041190827 0.046511163867433515 0.075084444049459242 0.059445877344873936 -0.0057052725449550992 0.038888379103607602 -0.00089182328432798382 -0.026738670942349697 0.0033951976478261794 0.021003966894932093 -0.035776970127508759 0.048021004050970081 0.00088044165705259032 0.031303401198238136 0.014394873939454557 0.0007917904108762742 0.012135606733235446 0.0085620950508330552 -0.0098212671195450595 -0.0072365801334870472 0.027117582697134754
leaf_weight=23 28 32 20 21 20 34 25 38 30 21 21 26 23 43 27 20 39 23 25 21 20 26 24 21 20 22 28 1782 609 26
leaf_count=23 28 32 20 21 20 34 25 38 30 21 21 26 23 43 27 20 39 23 25 21 20 26 24 21 20 22 28 1782 609 26
internal_value=0 0.0436398 0.0751758 0.0985432 0.14127 0.0399198 0.0613898 0.0297639 0.0252515 0.0296468 0.0243635 0.0478763 0.0181551 -0.00764922 0.00403424 0.0103019 -0.00181086 0.000684299 0.039424 -0.0153006 0.00721003 0.0213763 0.0166692 0.030453 -0.0174063 -0.00853419 -0.00442658 -0.00871904 -0.00582205 0.00666276
internal_weight=0 468 143 86 40 57 46 325 287 257 225 47 178 2670 188 130 161 88 48 44 102 46 44 42 59 2482 56 2460 678 69
internal_count=3138 468 143 86 40 57 46 325 287 257 225 47 178 2670 188 130 161 88 48 44 102 46 44 42 59 2482 56 2460 678 69
is_linear=0
shrinkage=0.1


Tree=14
num_leaves=31
num_cat=0
split_feature=106 105 19 33 72 100 78 104 22 16 98 12 17 99 58 51 82 97 77 96 51 94 45 83 35 56 12 97 11 1
split_gain=85.3919 12.4647 6.73355 7.99382 6.95915 6.72965 6.24992 4.2486 3.77174 6.02465 3.96915 3.59701 3.40714 2.68118 3.07899 2.03452 1.92659 1.92633 1.67929 1.26948 0.81654 1.89577 1.88487 1.13689 2.03663 1.26991 1.83321 1.01645 1.44376 0.933851
threshold=40.500000000000007 4.5000000000000009 0.78683261183261222 0.098802550499650407 -0.80356935931837337 66.500000000000014 78.389900057888312 76.500000000000014 0.65483315295815314 0.47553309593632159 14.500000000000002 0.48935046119829956 1.1097716225782601 50.500000000000007 0.044429831783928356 -0.71209579137899437 0.15940711462450555 108.50000000000001 0.57301573426573416 42.500000000000007 -0.16742482407627399 138.50000000000003 0.44164594293001752 0.45580697094099659 0.29742027274371757 0.61462281679673014 0.44835475515091555 152.50000000000003 -0.10794119071950399 1.6201534767932102
decision_type=2 2 2 2 2 2 2 2 2 2 2 2 2 2 2 2 2 2 2 2 2 2 2 2 2 2 2 2 2 2
left_child=1 -1 -3 4 -4 7 8 11 9 10 -5 13 16 14 15 -2 18 -15 -12 -18 21 -7 23 25 -25 26 -23 28 -27 -22
right_child=5 2 3 6 -6 20 -8 -9 -10 -11 12 -13 -14 17 -16 -17 19 -19 -20 -21 29 22 -24 24 -26 27 -28 -29 -30 -31
leaf_value=0.10164714153442118 -0.025018224359623028 0.09582640290260315 0.024334698753512424 0.049925576511989624 0.093689704279248165 -0.010916826550777144 0.072144422706748756 0.05107435891809671 -0.019444234855473044 0.071984215885400771 0.033169911170585285 0.043163306751976847 0.038550285791446058 -0.01734592192209302 0.037714509489459869 0.015294535001439433 -0.025605844386986328 0.014552275650203228 -0.0040492940323681318 0.0061011325810914454 -0.0089700249319304964 -0.0072230140013354168 0.025593124359846117 -0.0079870434538010637 0.028261470169790331 -0.0085083642005920404 0.026170581627276635 -0.0085116456888366995 0.027538619935512543 0.01224983957196985
leaf_weight=36 21 20 23 34 39 325 28 23 20 25 27 23 35 78 34 31 28 25 22 23 1670 35 25 31 31 25 31 329 20 21
leaf_count=36 21 20 23 34 39 325 28 23 20 25 27 23 35 78 34 31 28 25 22 23 1670 35 25 31 31 25 31 329 20 21
internal_value=0 0.0458244 0.0396219 0.0359242 0.0679612 -0.00593837 0.0277164 0.0102525 0.0219033 0.026166 0.0193881 0.00582369 0.0116972 0.00127972 0.0143144 -0.000985618 0.00229866 -0.00960364 0.0164592 -0.0113066 -0.00743457 -0.00491012 -0.00120579 -0.0025404 0.0101372 -0.00432679 0.00846186 -0.0065836 0.00751252 -0.0087065
internal_weight=0 360 324 304 62 2778 242 235 214 194 169 212 135 189 86 52 100 103 49 51 2543 852 527 502 62 440 66 374 45 1691
internal_count=3138 360 324 304 62 2778 242 235 214 194 169 212 135 189 86 52 100 103 49 51 2543 852 527 502 62 440 66 374 45 1691
is_linear=0
shrinkage=0.1


Tree=15
num_leaves=31
num_cat=0
split_feature=109 109 25 29 31 35 51 92 47 46 31 94 99 48 74 66 49 114 64 23 7 100 63 105 100 104 84 27 103 92
split_gain=69.3108 14.0918 7.89551 10.6574 7.79539 10.9964 6.99284 5.25745 4.00864 7.605 6.01755 3.67741 3.14606 2.47409 2.45908 1.93356 1.8031 1.69307 3.10782 1.74056 1.41401 1.19591 0.972526 0.816357 1.5262 5.83914 1.60191 1.77633 0.757917 0.734378
threshold=52.500000000000007 18.500000000000004 0.75315217391304368 1.8831927973589051 0.12083327939756851 -0.50307535425527095 -0.93911882414561332 0.08728431940357681 -0.23651198800518849 0.58338419064225511 0.076138256672601212 24.500000000000004 50.500000000000007 -1.0677717672738298 0.49910000000000004 -0.22572620643181449 0.39163303057456306 70.500000000000014 0.15300969876746104 0.47640978980041204 0.69623349225118514 68.500000000000014 0.8741067953756021 80.500000000000014 114.50000000000001 124.50000000000001 0.070509919578244526 0.045610061288148561 84.500000000000014 0.052427128157969259
decision_type=2 2 2 2 2 2 2 2 2 2 2 2 2 2 2 2 2 2 2 2 2 2 2 2 2 2 2 2 2 2
left_child=1 2 3 4 5 -1 7 -7 9 -3 -11 -12 14 -13 15 16 29 18 19 20 -2 -22 -17 -19 25 26 27 -25 -21 -10
right_child=17 8 -4 -5 -6 6 -8 -9 12 10 11 13 -14 -15 -16 22 -18 23 -20 28 21 -23 -24 24 -26 -27 -28 -29 -30 -31
leaf_value=0.13360399142617271 0.026233462184667589 0.088084010277753297 0.014850044972263277 0.13373871520161629 0.0026936750770324754 0.035099062651750591 0.001157689094543457 0.10297044107317926 0.024154372073244307 0.07330133895434085 0.049638014612719418 0.020521766420554474 -0.021756507423908816 -0.017139864309380453 0.047296479002883036 0.009708806803530973 0.040459138287171244 -0.014277326158234772 0.034323871522038071 -0.024125436941782635 0.014042206493116195 -0.011369523989117664 -0.020056027134082149 -0.012713477313518524 -0.0073358103956093212 0.039471267119926573 -0.010165855495990077 0.025760863398512208 -0.00018183261156082156 -0.00093480246973090943
leaf_weight=21 25 23 32 22 21 21 20 25 20 21 22 37 23 33 24 23 31 142 27 39 31 46 21 20 2098 34 158 30 20 28
leaf_count=21 25 23 32 22 21 21 20 25 20 21 22 37 23 33 24 23 31 142 27 39 31 46 21 20 2098 34 158 30 20 28
internal_value=0 0.0354982 0.0593469 0.0703 0.0573773 0.0705768 0.0505227 0.0719857 0.0228725 0.035669 0.0250005 0.0139753 0.0126352 0.002767 0.0180162 0.012303 0.0216601 -0.00622216 0.00292746 -0.00233778 0.00557007 -0.00113883 -0.00449714 -0.0069152 -0.00646844 0.00105113 -0.00522908 0.0103711 -0.016009 0.00951902
internal_weight=0 468 162 130 108 87 66 46 306 136 113 92 170 70 147 123 79 2670 188 161 102 77 44 2482 2340 242 208 50 59 48
internal_count=3138 468 162 130 108 87 66 46 306 136 113 92 170 70 147 123 79 2670 188 161 102 77 44 2482 2340 242 208 50 59 48
is_linear=0
shrinkage=0.1


Tree=16
num_leaves=31
num_cat=0
split_feature=106 114 71 78 78 37 98 23 27 100 91 104 12 100 51 101 83 101 73 103 99 100 6 100 106 34 99 95 55 2
split_gain=56.2914 9.35209 5.2598 6.76712 5.62007 6.74975 9.34334 8.50275 6.37696 4.53588 3.87638 3.357 2.84072 2.81939 2.57742 3.29449 2.15822 1.88808 2.30739 1.15495 0.760317 2.35574 1.69032 0.930805 4.37503 1.65374 0.792615 0.738509 0.576401 0.527307
threshold=40.500000000000007 4.5000000000000009 0.20245255997135703 78.543553900340655 77.814822433045109 0.57317520215633411 14.500000000000002 0.66207787386306716 0.059698078650171953 66.500000000000014 0.20630267790461954 76.500000000000014 0.48753382597324152 34.500000000000007 -1.4228946701627196 20.500000000000004 0.12258002299618001 52.500000000000007 0.19005000000000002 50.500000000000007 86.500000000000014 84.500000000000014 1.2066173352583653 114.50000000000001 130.50000000000003 0.26786216697039761 114.50000000000001 72.500000000000014 0.36704124579124603 0.94992754037372407
decision_type=2 2 2 2 2 2 2 2 2 2 2 2 2 2 2 2 2 2 2 2 2 2 2 2 2 2 2 2 2 2
left_child=1 -1 3 4 5 6 -3 8 -8 11 -6 12 16 14 -7 -16 -2 18 -18 -20 -11 22 -22 24 25 26 29 -19 -28 -23
right_child=9 2 -4 -5 10 13 7 -9 -10 20 -12 -13 -14 -15 15 -17 17 27 19 -21 21 23 -24 -25 -26 -27 28 -29 -30 -31
leaf_value=0.085558808443602183 0.024769964522371693 0.10760201536532905 -0.0095934253718171804 0.089112365465949889 -0.018261329672355772 0.0016276650808074258 0.032921633103655444 0.00048303317391511165 0.10457654339463816 -0.012259303338703563 0.030585699278890391 0.044757525590450875 0.035495255314386812 -0.0085225763283669955 0.073041048078309925 0.021742453618395715 0.027153863629791886 -0.023148800681034726 0.0099396343436092133 -0.022300925090909005 0.038007926444212602 -0.0094174065268956691 -0.0026132170483469963 -0.0066206263448034437 0.039624785959720611 0.021476311768804279 0.015915781967341901 -0.0033476678354124874 -0.0080925619788467882 -0.027147504538297652
leaf_weight=36 30 27 28 22 33 22 27 33 23 183 32 23 26 25 21 31 32 48 20 25 21 104 20 2109 25 21 20 31 20 20
leaf_count=36 30 27 28 22 33 22 27 33 23 183 32 23 26 25 21 31 32 48 20 25 21 104 20 2109 25 21 20 31 20 20
internal_value=0 0.0372057 0.0318331 0.0357519 0.0314674 0.0394544 0.0565031 0.0398805 0.0658829 -0.00482147 0.00578644 0.00847094 0.00453419 0.0205113 0.0303201 0.0424592 0.000206301 -0.00451748 0.00662589 -0.00797179 -0.00604983 -0.00556834 0.0181927 -0.00598843 0.000360601 -0.00494537 -0.00832863 -0.0153787 0.00391161 -0.0122771
internal_weight=0 360 324 296 274 209 110 83 50 2778 65 235 212 99 74 52 186 156 77 45 2543 2360 41 2319 210 185 164 79 40 124
internal_count=3138 360 324 296 274 209 110 83 50 2778 65 235 212 99 74 52 186 156 77 45 2543 2360 41 2319 210 185 164 79 40 124
is_linear=0
shrinkage=0.1


Tree=17
num_leaves=31
num_cat=0
split_feature=109 108 56 27 78 95 37 46 9 21 31 69 16 88 2 81 24 19 26 103 35 51 97 9 65 42 84 89 100 108
split_gain=45.9303 9.38516 8.18099 11.1005 3.32174 3.5485 3.82245 3.60519 3.31234 4.28665 4.46656 3.76181 2.28673 1.78596 1.55151 1.60865 1.49848 1.74161 1.32846 3.274 1.09445 0.675493 1.18588 1.56289 2.05341 1.32507 2.15001 0.938367 0.699545 0.63975
threshold=52.500000000000007 10.500000000000002 0.63197802197802211 0.057194623246644954 78.543553900340655 10.500000000000002 0.52591945380693106 0.57902109800363011 0.39127040715901157 0.42902930402930406 0.076138256672601212 -0.88480021249399898 0.46409105600282058 0.11973812374506801 0.97482853688835114 0.53902151799842157 0.40823664019383504 0.83821831169029859 2.0493907800165707 120.50000000000001 2.4530359368970207 -0.35951256991544894 209.50000000000003 0.40385633963494155 0.25157100026794305 0.24105000000000001 0.14526902997256302 0.42633522052419054 56.500000000000007 56.500000000000007
decision_type=2 2 2 2 2 2 2 2 2 2 2 2 2 2 2 2 2 2 2 2 2 2 2 2 2 2 2 2 2 2
left_child=1 2 -1 -4 5 6 -3 -7 -9 14 -11 13 16 -12 15 -10 17 -13 20 -20 21 22 25 27 -25 28 -27 -24 -2 -23
right_child=18 4 3 -5 -6 7 -8 8 9 10 11 12 -14 -15 -16 -17 -18 -19 19 -21 -22 29 23 24 -26 26 -28 -29 -30 -31
leaf_value=0.097543268401006411 0.006086843402590603 0.015837899808372771 -0.0040272414917126298 0.084905826821923269 0.056479533985839228 0.04641342970049557 0.075484308109364739 -0.017323236449909234 -0.009760443742611799 0.061140174465253952 0.013630519305234371 0.053876049781129476 0.05879217341542245 -0.025777760795924975 -0.026680128564211453 0.027104555703699591 0.0055912245676985814 0.012643302958458663 0.042564752176404 -0.0084248696399085669 0.016824646107852458 -0.024357209000736475 -0.0073421184246966606 0.002067528944462538 0.03709904289355985 0.023371603418337675 -0.0096463124381332872 0.011279004895024831 -0.0090839569212554337 -0.0063763088543190224
leaf_weight=33 33 21 32 25 26 34 22 34 29 28 23 21 20 23 22 20 35 20 20 34 22 20 109 44 27 38 41 36 385 1861
leaf_count=33 33 21 32 25 26 34 22 34 29 28 23 21 20 23 22 20 35 20 20 34 22 20 109 44 27 38 41 36 385 1861
internal_value=0 0.0288972 0.0579189 0.0349785 0.0219873 0.0194396 0.0463547 0.0156941 0.0118961 0.0160183 0.0246373 0.0174395 0.0287062 -0.00607362 -0.00461866 0.00528649 0.0207889 0.0337625 -0.00506513 0.0104602 -0.00538561 -0.00557398 -0.00295293 0.00323333 0.0153894 -0.00564152 0.00623572 -0.00271894 -0.00788626 -0.00656749
internal_weight=0 468 90 57 378 352 43 309 275 241 170 142 96 46 71 49 76 41 2670 54 2616 2594 713 216 71 497 79 145 418 1881
internal_count=3138 468 90 57 378 352 43 309 275 241 170 142 96 46 71 49 76 41 2670 54 2616 2594 713 216 71 497 79 145 418 1881
is_linear=0
shrinkage=0.1


Tree=18
num_leaves=31
num_cat=0
split_feature=106 114 82 88 25 5 58 73 87 21 35 100 89 28 83 36 21 32 32 35 105 100 8 110 34 7 55 48 78 100
split_gain=37.3471 6.47097 4.56875 5.15238 8.08332 7.10895 5.31582 4.46267 4.04699 5.93932 3.88155 3.16666 2.78438 2.71252 2.32395 2.17733 1.46771 0.858196 2.80105 0.826082 0.825732 1.36744 1.21364 0.932507 0.820846 0.920583 0.787286 0.608221 0.961809 0.604706
threshold=40.500000000000007 4.5000000000000009 0.015776892430278903 0.069046275278405803 0.6663003663003666 0.77791160650153413 0.032298940630275157 0.19425000000000003 0.015851943208491755 0.44529820770967005 0.48317230694011654 52.500000000000007 0.13809230978412004 0.15890929410154853 0.20210103911464053 0.23228987121868303 0.43809867668563307 -1.2780640000927199 -1.35349591147594 2.4530359368970207 82.500000000000014 76.500000000000014 1.3951356126196952 52.500000000000007 0.25033927720853655 0.78992887113941468 0.30391730605285605 -0.095166307119841739 76.759502986738909 116.50000000000001
decision_type=2 2 2 2 2 2 2 2 2 2 2 2 2 2 2 2 2 2 2 2 2 2 2 2 2 2 2 2 2 2
left_child=1 -1 -3 4 -4 -6 7 -5 16 12 -11 13 -10 15 -14 24 -8 18 27 20 22 -22 23 -19 25 -2 -25 28 -13 -23
right_child=11 2 3 6 5 -7 8 -9 9 10 -12 17 14 -15 -16 -17 -18 19 -20 -21 21 29 -24 26 -26 -27 -28 -29 -30 -31
leaf_value=0.070526354532274946 -0.030177673920989037 -0.0094265447873057746 0.10678720857948065 0.021411496922373773 0.070997789949895099 -0.00044351315125823026 0.061073633623309434 0.088214732408523566 0.016548287404875735 0.049407601211633949 0.00024793592827587291 0.021091777526519515 -0.051782342994754961 0.039391529031230943 -0.0076216061563732541 0.02783844387606503 0.023643753728405995 0.010894971730356869 0.03052695182890728 0.014186790077523751 0.014901636221579143 -0.0002239357220365646 -0.031901806235313419 0.0071272927735533042 0.0098876971378922471 -0.00019993807765699572 -0.013563118083402515 -0.0081565720029175282 -0.0068490325739341126 -0.0055892164160431636
leaf_weight=36 20 33 20 20 26 30 20 20 20 36 29 22 22 28 26 26 22 22 29 22 35 235 25 21 20 21 148 96 28 1980
leaf_count=36 20 33 20 20 26 30 20 20 20 36 29 22 22 28 26 26 22 22 29 22 35 235 25 21 20 21 148 96 28 1980
internal_value=0 0.0303052 0.0258362 0.029835 0.0522155 0.0327257 0.0219238 0.0548131 0.0144062 0.00586057 0.0274748 -0.00392724 -0.0148001 0.0123197 -0.0278619 0.00360691 0.0414675 -0.00462885 0.00213998 -0.00510496 -0.00527706 -0.0047101 -0.011183 -0.00847109 -0.00672128 -0.0148232 -0.0109921 -0.00349853 0.00544492 -0.00501999
internal_weight=0 360 324 291 76 56 215 40 175 133 65 2778 68 115 48 87 42 2663 175 2488 2466 2250 216 191 61 41 169 146 50 2215
internal_count=3138 360 324 291 76 56 215 40 175 133 65 2778 68 115 48 87 42 2663 175 2488 2466 2250 216 191 61 41 169 146 50 2215
is_linear=0
shrinkage=0.1


Tree=19
num_leaves=31
num_cat=0
split_feature=106 86 29 108 50 88 82 83 98 100 57 75 60 84 67 45 30 81 47 32 22 103 58 37 12 79 68 112 100 100
split_gain=30.4779 6.46024 12.096 4.68248 4.41264 5.14506 5.37294 4.13553 5.35535 3.66911 4.6898 3.78185 3.61743 3.41464 2.05688 1.64824 1.61262 2.05027 1.65895 0.961908 0.949381 0.664898 1.10279 0.609792 1.6115 1.05217 1.44434 0.562181 2.48249 0.547887
threshold=34.500000000000007 0.13319851361257853 1.6890492957061152 10.500000000000002 0.57199206209503706 0.20092349016041253 0.11477592348824601 0.15967784799870352 10.500000000000002 66.500000000000014 0.86661116097421109 0.25674104556059357 -0.32795675533951296 0.14660231500268153 0.24531612048990403 0.40628913974950559 0.029656907899908051 0.54037495647061806 0.010058057640485491 -0.3800352239144949 0.61805990126547117 60.500000000000007 0.044473977832437402 0.6712656529516996 0.48823471538521557 2.0171938736320354 0.56820574162679416 90.500000000000014 84.500000000000014 112.50000000000001
decision_type=2 2 2 2 2 2 2 2 2 2 2 2 2 2 2 2 2 2 2 2 2 2 2 2 2 2 2 2 2 2
left_child=1 4 3 -3 7 6 -6 -1 -9 10 11 14 -5 -10 16 -15 17 20 -19 -18 21 22 -2 27 25 -25 -27 -11 -29 -30
right_child=9 2 -4 12 5 -7 -8 8 13 23 -12 -13 -14 15 -16 -17 19 18 -20 -21 -22 -23 -24 24 -26 26 -28 28 29 -31
leaf_value=-0.017766806585953022 -0.018981561096834729 0.07178854715256465 0.12128120839595796 -0.017173631852492693 0.026416517123288942 -0.0012196361532677774 0.086399425130470525 0.061770665924996138 0.031799734197556974 -0.010179698758905656 0.052945485471614775 0.037330755578974882 0.039395233988761907 0.0077786767766589221 0.028077380786366436 -0.032333580246195197 -0.035652482304722073 0.0038845128641696648 0.040598259370890448 -0.0081609461509755676 -0.019995437759686919 0.014306861923440642 0.010709125802598217 -0.0058910992851511383 0.024292886674404143 0.03126783629879356 -0.0039174240880778862 0.028173638540117635 0.00091815974906479065 -0.0053184882713468223
leaf_weight=39 29 21 20 20 32 23 28 24 32 190 21 30 26 21 23 20 20 32 20 35 34 23 22 183 25 20 28 23 152 1922
leaf_count=39 29 21 20 20 32 23 28 24 32 190 21 30 26 21 23 20 20 32 20 35 34 23 22 183 25 20 28 23 152 1922
internal_value=0 0.0299814 0.0530343 0.0326621 0.0208234 0.0389935 0.0544085 0.00973428 0.0207914 -0.00323952 0.00743769 0.00387178 0.0148001 0.0073188 -0.000345735 -0.0117883 -0.00338635 0.00169136 0.0180052 -0.0181579 -0.00616344 0.000191802 -0.00617381 -0.00445293 0.000175468 -0.00243464 0.0107431 -0.00497102 -0.00449908 -0.00486141
internal_weight=0 306 87 67 219 83 60 136 97 2832 289 268 46 73 238 41 215 160 52 55 108 74 51 2543 256 231 48 2287 2097 2074
internal_count=3138 306 87 67 219 83 60 136 97 2832 289 268 46 73 238 41 215 160 52 55 108 74 51 2543 256 231 48 2287 2097 2074
is_linear=0
shrinkage=0.1


Tree=20
num_leaves=31
num_cat=0
split_feature=109 94 69 84 69 81 82 21 22 31 16 41 29 77 100 97 26 16 24 35 96 100 103 99 100 106 50 45 51 98
split_gain=24.8758 5.77649 9.25004 10.612 6.01008 3.23898 5.65232 3.52013 3.47496 3.00282 3.53044 2.27988 1.9956 1.75772 1.72538 1.02975 0.995226 2.53387 0.775971 0.625261 0.598107 1.26171 3.22077 0.645617 1.92433 2.36689 0.981217 1.08043 0.529227 1.2924
threshold=52.500000000000007 10.500000000000002 -1.0152704531374048 0.15675317837268601 -1.6205916375969247 0.57963363067387019 0.14194777938550204 0.43131378793350605 0.65011627906976754 0.079540159216872616 0.47553309593632159 0.63545280662814319 1.6890492957061152 0.57605609811492153 30.500000000000004 42.500000000000007 2.0493907800165707 0.4016153470185731 0.38181520540391506 2.4530359368970207 102.50000000000001 76.500000000000014 68.500000000000014 102.50000000000001 114.50000000000001 130.50000000000003 0.56543068459270063 0.39477304894506454 -1.2337671086043749 251.50000000000003
decision_type=2 2 2 2 2 2 2 2 2 2 2 2 2 2 2 2 2 2 2 2 2 2 2 2 2 2 2 2 2 2
left_child=1 2 -1 -4 -3 7 -7 11 9 -9 12 18 13 14 -11 -13 19 -18 -6 20 -2 22 -22 -23 25 26 -25 -28 29 -26
right_child=16 4 3 -5 5 6 -8 8 -10 10 -12 15 -14 -15 -16 -17 17 -19 -20 -21 21 23 -24 24 28 -27 27 -29 -30 -31
leaf_value=-0.0094781118275767025 -0.0074484998006661479 0.06001146695865639 0.12563629008829594 0.03564378422007921 -0.0060936308127235283 0.06786926805421159 0.0083481379127941843 0.04698130125179887 -0.020812685764394701 0.025407598870141171 0.048979467867563173 -0.042537219561636447 0.030882665658802062 -0.018238357751397417 -0.0062219624072039391 -0.010447443695738912 -0.0082508582738228149 0.035835307548669253 0.021122157690115273 0.012782486487412826 -0.015663830170407893 -0.012386004368171973 0.03224020673078485 0.020054886561064494 -0.0057490018271916625 0.040131130956468135 -0.017705778727928799 0.01230014331638813 -0.0044613199513908975 0.025802497807890179
leaf_weight=22 453 29 20 38 22 27 39 33 24 35 24 20 28 33 34 20 32 22 20 22 25 85 32 21 37 21 30 20 1850 20
leaf_count=22 453 29 20 38 22 27 39 33 24 35 24 20 28 33 34 20 32 22 20 22 25 85 32 21 37 21 30 20 1850 20
internal_value=0 0.0212664 0.0457334 0.0666757 0.0162217 0.0126844 0.0326977 0.00817626 0.0150093 0.0196067 0.0137407 -0.00940622 0.00723514 0.000743661 0.00982202 -0.0264923 -0.0037276 0.00971017 0.00686627 -0.00400499 -0.00414736 -0.0034489 0.0112297 -0.00385037 -0.00348743 0.0106384 0.00191524 -0.00570341 -0.00416891 0.0053217
internal_weight=0 468 80 58 388 359 66 293 211 187 154 82 130 102 69 40 2670 54 42 2616 2594 2141 57 2084 1999 92 71 50 1907 57
internal_count=3138 468 80 58 388 359 66 293 211 187 154 82 130 102 69 40 2670 54 42 2616 2594 2141 57 2084 1999 92 71 50 1907 57
is_linear=0
shrinkage=0.1


Tree=21
num_leaves=31
num_cat=0
split_feature=100 29 9 102 5 72 78 69 18 75 46 79 114 63 88 78 105 106 28 7 107 100 84 54 104 100 99 98 8 107
split_gain=20.6894 7.2481 6.01681 3.88713 3.80329 6.42542 4.19384 3.58509 6.27775 3.09145 2.09366 1.94242 1.33712 1.5073 1.37037 1.23282 1.05954 1.35024 0.936218 0.582081 0.732405 0.927338 2.06408 0.572175 0.492949 2.13318 2.05408 1.67364 1.17442 0.518789
threshold=26.500000000000004 2.1116898405106905 0.46518561723735702 52.500000000000007 0.80606063074663659 -0.52775706510400544 77.231493829600268 0.25274842454854302 0.6401013513513516 -1.4959951641677598 0.5838770999115831 1.8699436881526452 38.500000000000007 -0.68655760013463685 0.037631561231052157 77.699489729729763 46.500000000000007 56.500000000000007 0.137717182665927 1.4533560453440553 50.500000000000007 64.500000000000014 0.13266061705989102 -0.34646719902901041 104.50000000000001 114.50000000000001 120.50000000000001 162.50000000000003 0.59411275025261612 134.50000000000003
decision_type=2 2 2 2 2 2 2 2 2 2 2 2 2 2 2 2 2 2 2 2 2 2 2 2 2 2 2 2 2 2
left_child=1 2 4 7 5 6 -1 10 -9 -8 -2 15 14 -14 -12 -6 -5 -18 -15 20 -19 22 -22 -20 -23 26 28 -28 -26 -27
right_child=3 -3 -4 16 11 -7 9 8 -10 -11 12 -13 13 18 -16 -17 17 19 23 -21 21 24 -24 -25 25 29 27 -29 -30 -31
leaf_value=0.044471342806462894 0.023990603171190936 0.086174703817814599 0.06831317177185646 -0.023104647381438151 0.029776994646950203 0.064174184445790691 -0.033695827965580287 0.0061449741226221842 0.075304534250781652 0.016330177220515909 -0.0079723977838598564 -0.019642743047687317 0.012374455862057706 0.00052336813797327611 0.026087898743787297 -0.0037005251633342017 0.016605373233666315 -0.021388976502677667 -0.036279610895805739 0.0095464101061224944 0.032847454238005662 -0.0074882017793225161 -0.0087709786083835835 -0.014554136715553426 -0.0085250566541044803 -0.009486470996296105 0.0084174907342954124 0.048387030884623532 0.015651170001365244 -0.0035238908183253081
leaf_weight=27 38 20 26 27 22 35 21 35 21 30 21 31 24 22 27 22 34 23 22 34 22 306 26 27 54 158 22 20 32 1909
leaf_count=27 38 20 26 27 22 35 21 35 21 30 21 31 24 22 27 22 34 23 22 34 22 306 26 27 54 158 22 20 32 1909
internal_value=0 0.0286047 0.0232244 -0.00230493 0.0169887 0.0285762 0.0126028 0.00996816 0.0320798 -0.00426877 0.00312698 -0.000469903 -0.0024172 -0.00929065 0.0111865 0.0130382 -0.00339556 -0.00319399 -0.0166141 -0.00345231 -0.00362414 -0.00346385 0.0103041 -0.0243084 -0.00372809 -0.0032039 0.00932351 0.0274506 0.000470749 -0.00397967
internal_weight=0 234 214 2904 188 113 78 237 56 51 181 75 143 95 48 44 2667 2640 71 2606 2572 2549 48 49 2501 2195 128 42 86 2067
internal_count=3138 234 214 2904 188 113 78 237 56 51 181 75 143 95 48 44 2667 2640 71 2606 2572 2549 48 49 2501 2195 128 42 86 2067
is_linear=0
shrinkage=0.1


Tree=22
num_leaves=31
num_cat=0
split_feature=100 71 41 9 84 29 37 101 27 53 40 27 91 77 73 2 13 28 105 114 100 99 37 79 81 12 35 104 107 41
split_gain=16.7584 6.13821 5.63097 6.96925 3.59295 4.98247 3.9261 3.18903 4.29803 3.11946 3.94544 4.67767 2.90062 2.23752 1.43296 2.0363 1.36145 0.814718 0.763626 0.841745 1.87341 0.822651 0.529194 1.38985 1.96064 0.821775 0.641187 0.436903 1.47105 0.445384
threshold=26.500000000000004 0.19928443420378902 1.0000000180025095e-35 0.46518561723735702 0.20680474630655551 1.5668693528293702 0.52971814323915856 54.500000000000007 0.070519632974013105 0.61388003944176506 0.20076742085250351 0.052604343113702205 0.29889947931490207 0.55621556600706568 0.21125000000000002 0.91311230562003509 0.64735927751372813 0.15114919111914951 42.500000000000007 56.500000000000007 68.500000000000014 88.500000000000014 0.64912004159200054 2.0171938736320354 0.53217785721003319 0.48823471538521557 1.1139827423797304 60.500000000000007 66.500000000000014 1.1858937252034802
decision_type=2 2 2 2 2 2 2 2 2 2 2 2 2 2 2 2 2 2 2 2 2 2 2 2 2 2 2 2 2 2
left_child=1 2 -1 4 5 6 -4 8 9 14 11 -11 -8 -6 15 17 -17 -2 -9 20 -20 -22 27 25 26 -24 -25 -21 -29 -30
right_child=7 -3 3 -5 13 -7 12 18 -10 10 -12 -13 -14 -15 -16 16 -18 -19 19 22 21 -23 23 24 -26 -27 -28 28 29 -31
leaf_value=0.073401301700089669 -0.027952499776754694 -0.018186369771137835 0.046404639657201444 0.073001073358150634 -0.026139163181185723 0.072490950215142222 0.018850137259472502 -0.019827504035223417 0.048928593386275074 0.059304295101901522 -0.0093758829093227788 0.006405836157500744 -0.029412560544442384 0.016169392675161362 -0.024056354529139672 0.031581966613885015 -0.0028579851273785942 -0.0013357629047949678 0.027396416551722536 -0.013361206813715399 -0.017823789532606802 0.0096370367333292965 -0.0045171703039496034 -0.00843175971099446 0.034418467604196992 0.015581835433840752 0.012862494086416869 0.022722244193954841 -0.0043465475091001345 0.00061352164298295985
leaf_weight=28 23 28 29 26 25 20 33 27 24 32 36 35 20 25 33 24 22 23 29 47 24 20 270 31 26 22 26 21 1909 200
leaf_count=28 23 28 29 26 25 20 33 27 24 32 36 35 20 25 33 24 22 23 29 47 24 20 270 31 26 22 26 21 1909 200
internal_value=0 0.0257443 0.0317154 0.0251581 0.0169744 0.0277388 0.0168236 -0.00207443 0.00867579 0.00443865 0.0173244 0.0316708 0.000637798 -0.00498489 -0.00617919 0.000233277 0.0151107 -0.0146441 -0.00309595 -0.00292385 0.00766392 -0.0053416 -0.00322672 0.000242893 0.0116617 -0.00300286 0.00128141 -0.00382438 -0.00361394 -0.00387618
internal_weight=0 234 206 178 152 102 82 2904 252 228 103 67 53 50 125 92 46 46 2652 2625 73 44 2552 375 83 292 57 2177 2130 2109
internal_count=3138 234 206 178 152 102 82 2904 252 228 103 67 53 50 125 92 46 46 2652 2625 73 44 2552 375 83 292 57 2177 2130 2109
is_linear=0
shrinkage=0.1


Tree=23
num_leaves=31
num_cat=0
split_feature=106 22 16 86 25 46 28 26 58 77 111 55 75 71 69 97 33 73 18 45 74 35 8 53 73 113 100 89 59 77
split_gain=13.6235 4.44631 7.56314 3.90318 9.23929 4.32691 3.41467 5.58861 3.26909 2.25963 1.61938 3.07806 2.46748 1.82804 1.6956 1.607 1.36696 1.28734 1.78717 1.13699 0.93605 0.837096 0.586659 0.530079 1.85563 0.555858 0.636248 0.464209 0.405465 2.68692
threshold=34.500000000000007 0.66505417956656354 0.49932432432432455 0.13319851361257853 0.66685867895545359 0.61587768440709667 0.12942514431293753 0.97684512460055262 0.037877070345008007 0.56410554561717363 68.500000000000014 0.42860150375939854 0.25674104556059357 0.16350594424372603 -0.80403657760508584 38.500000000000007 0.10680187876855751 0.21440000000000001 0.63335401157981808 0.38195791051054206 0.46845000000000009 0.50261543370879613 0.58530807642636506 0.58379903651529153 0.18055000000000002 74.500000000000014 76.500000000000014 0.33338488503969455 0.11592451131577151 0.57902114248537861
decision_type=2 2 2 2 2 2 2 2 2 2 2 2 2 2 2 2 2 2 2 2 2 2 2 2 2 2 2 2 2 2
left_child=1 2 3 5 -5 15 -7 8 -8 -6 11 12 13 19 -15 16 -1 18 -16 -2 -21 -19 -20 24 -12 27 -27 -25 29 -28
right_child=10 -3 -4 4 9 6 7 -9 -10 -11 23 -13 -14 14 17 -17 -18 21 22 20 -22 -23 -24 25 -26 26 28 -29 -30 -31
leaf_value=-0.0030622971197590233 -0.032341072481611499 -0.025538519099354746 0.071642609448011582 0.086641296327114106 0.032863063039258122 -0.013588073714212938 0.074714173749089244 -0.0037626863428158689 0.028180061177247102 -0.010999877279138436 0.027467830136418344 0.040723638003692032 0.028075792267918589 0.026634622599672655 0.024147053455051623 0.0092862829290054471 -0.039184729458594865 -0.0014536067929216906 -0.018247119979932905 -0.01640789390390588 0.0086401933990418924 -0.025308973293673872 0.0059739326871931552 -0.0071393932513892644 -0.0062526275542505241 0.012037135018701 0.036024787425994874 -0.024285788619890808 -0.0034698738870624964 -0.0034090784239018054
leaf_weight=20 23 20 29 25 24 22 26 32 36 23 25 22 32 29 38 27 22 38 20 37 25 24 20 75 47 28 20 20 2182 127
leaf_count=20 23 20 29 25 24 22 26 32 36 23 25 22 32 29 38 27 22 38 20 37 25 24 20 75 47 28 20 20 2182 127
internal_value=0 0.0200449 0.0232326 0.0177699 0.0375243 0.0100818 0.0218768 0.0301771 0.0476944 0.0113982 -0.00216587 0.00467951 0.00190689 -0.00138998 0.00462648 -0.00974754 -0.0219836 6.76562e-05 0.00861698 -0.0133521 -0.00630786 -0.0106879 -0.00613659 -0.0030012 0.00545586 -0.00324953 -0.00294726 -0.0107492 -0.0031274 0.00195607
internal_weight=0 306 286 257 72 185 116 94 62 47 2832 308 286 254 169 69 42 140 78 85 62 62 40 2524 72 2452 2357 95 2329 147
internal_count=3138 306 286 257 72 185 116 94 62 47 2832 308 286 254 169 69 42 140 78 85 62 62 40 2524 72 2452 2357 95 2329 147
is_linear=0
shrinkage=0.1


Tree=24
num_leaves=31
num_cat=0
split_feature=100 29 22 9 5 73 93 102 69 18 70 25 6 56 80 74 105 106 67 27 59 103 100 53 41 73 67 18 2 83
split_gain=11.1153 5.16666 4.71654 4.94689 4.01289 4.161 3.75672 2.3924 2.53536 4.76376 2.26113 1.7051 1.67254 1.86761 1.37775 1.33004 0.832133 1.78497 0.824357 0.665343 0.526516 0.475768 1.45429 0.56591 1.05187 2.44971 0.954749 0.560832 1.06576 0.770608
threshold=26.500000000000004 2.1116898405106905 0.65483315295815314 0.46518561723735702 0.80714211903962807 0.21605000000000002 0.071776000754841612 52.500000000000007 0.25274842454854302 0.6401013513513516 0.04458364839993726 0.6838974106388972 1.2187502648754602 0.69471192555431716 3.5000000000000004 0.49675000000000008 54.500000000000007 56.500000000000007 0.17560519190954002 0.054963659309583905 0.13481390169439753 70.500000000000014 64.500000000000014 0.63476056136460468 1.2569873605455002 0.17390000000000003 0.21322031359233004 0.63233144134846964 0.96132393122950666 0.49562778024911053
decision_type=2 2 2 2 2 2 2 2 2 2 2 2 2 2 2 2 2 2 2 2 2 2 2 2 2 2 2 2 2 2
left_child=1 2 3 4 5 6 -1 8 12 -10 -8 -6 13 15 -13 18 20 -18 -2 -20 -9 -19 -23 24 27 -26 -27 28 29 -24
right_child=7 -3 -4 -5 11 -7 10 16 9 -11 -12 14 -14 -15 -16 -17 17 21 19 -21 -22 22 23 -25 25 26 -28 -29 -30 -31
leaf_value=-0.008737425035947273 -0.015504970214631712 0.069572288622148343 -0.025347310987611612 0.065179581940174106 -0.023616772890090943 0.069411985799670214 0.010623650420457126 -0.02606604873823623 0.0039416772087237668 0.064187285383897161 0.054986029076907375 -0.0086079549891027538 -0.015577269350916785 0.029504398877422018 0.0267827701500871 0.023348303240808575 0.026058424331925137 -0.0093097031267825505 0.014050444973440008 -0.0090115912999449814 -0.0051193672057706866 0.020386622932606513 -0.0017927592115546142 -0.0038629391849501378 0.040444841999560596 -0.0072230715611751421 0.018863557614386083 -0.005526423152186908 0.021951120470960938 0.011885844958438115
leaf_weight=31 37 20 24 23 25 20 20 24 35 21 27 22 41 30 22 22 22 100 29 22 24 28 644 1393 20 47 20 280 21 44
leaf_count=31 37 20 24 23 25 20 20 24 35 21 27 22 41 30 22 22 22 100 29 22 24 28 644 1393 20 47 20 280 21 44
internal_value=0 0.0209664 0.0164238 0.0217002 0.015712 0.0287191 0.0182851 -0.00168944 0.007939 0.0265338 0.0361084 -0.00276193 0.00218591 0.00738799 0.00908741 0.00135624 -0.00254506 -0.00230593 -0.00414177 0.00410212 -0.0155927 -0.00254621 -0.00227535 -0.00253235 -0.000809759 0.009732 0.000563982 -0.00173709 -0.000240601 -0.000917965
internal_weight=0 234 214 190 167 98 78 2904 237 56 47 69 181 140 44 110 2667 2619 88 51 48 2597 2497 2469 1076 87 67 989 709 688
internal_count=3138 234 214 190 167 98 78 2904 237 56 47 69 181 140 44 110 2667 2619 88 51 48 2597 2497 2469 1076 87 67 989 709 688
is_linear=0
shrinkage=0.1


Tree=25
num_leaves=31
num_cat=0
split_feature=109 105 19 33 64 3 82 40 39 58 18 89 30 39 54 10 24 46 26 100 99 3 112 36 66 100 50 53 73 111
split_gain=9.14254 3.62888 2.98015 3.80237 4.87745 3.33125 3.24699 2.82366 4.25195 2.33125 2.51 2.26826 2.23498 1.88003 1.81443 1.24309 1.46352 0.907895 0.739085 2.14684 0.651293 0.763891 0.722785 0.43139 0.792491 0.574649 0.406742 0.553858 1.27194 0.379944
threshold=52.500000000000007 4.5000000000000009 0.78230643230643204 0.098802550499650407 0.110885414148415 1.3161512197802454 0.095977636095733315 0.17179528885774853 0.061414910600255453 0.046842793034685658 0.63736414565826316 0.14659780961271054 0.017125054679433153 0.043479357420911253 -0.42620249534193994 0.64323728813559355 0.39392621870882755 0.60065681710418561 2.0493907800165707 128.50000000000003 62.500000000000007 1.1940762793604902 64.500000000000014 0.27156176398341209 -0.55884468288090139 128.50000000000003 0.53063631112822518 0.58379903651529153 0.18990000000000004 64.500000000000014
decision_type=2 2 2 2 2 2 2 2 2 2 2 2 2 2 2 2 2 2 2 2 2 2 2 2 2 2 2 2 2 2
left_child=1 -1 -3 4 -4 7 -6 8 12 15 -11 -7 -5 -14 -13 16 17 -9 20 -20 21 -2 -22 26 -25 -26 -24 28 -28 -29
right_child=18 2 3 5 6 11 -8 9 -10 10 -12 14 13 -15 -16 -17 -18 -19 19 -21 22 -23 23 24 25 -27 27 29 -30 -31
leaf_value=0.043396361524032229 0.0066017033443564466 0.048047958668321372 -0.0069641205123983892 -0.014669626069842873 0.021093779612475865 0.013210081342946401 0.07107061609052695 -0.010014816138427704 0.063028475837338546 0.0026243373016385657 0.046391065749339766 -0.0088217428245116036 0.0013803532690785472 0.041274689538059413 -0.044777029335498812 0.010853529557581558 0.001873267789864365 -0.038863336853682998 0.035317535959184174 -0.0059721759246552696 0.016291895863555728 -0.01482827596297284 -0.015113503213685292 0.016524824748436608 0.011316643623185569 -0.0048269825987517839 0.026670077550668449 0.0062249471453706857 -0.0052044743491757306 -0.0029571636344000634
leaf_weight=36 21 20 26 22 26 22 26 20 21 38 20 32 21 27 25 28 34 24 20 34 21 80 26 33 29 92 21 46 31 2216
leaf_count=36 21 20 26 22 26 22 26 20 21 38 20 32 21 27 25 28 34 24 20 34 21 80 26 33 29 92 21 46 31 2216
internal_value=0 0.0128926 0.0103506 0.00852062 0.0284001 0.00387811 0.0460822 0.00943682 0.0235634 0.00159829 0.0177163 -0.0140646 0.0117239 0.0238209 -0.0245916 -0.007221 -0.0137093 -0.0257504 -0.00225982 0.00932031 -0.00249886 -0.0103725 -0.00218266 -0.00233822 0.00278844 -0.000957849 -0.00267562 -0.00253587 0.00766794 -0.00277044
internal_weight=0 468 432 412 78 334 52 255 91 164 58 79 70 48 57 106 78 44 2670 54 2616 101 2515 2494 154 121 2340 2314 52 2262
internal_count=3138 468 432 412 78 334 52 255 91 164 58 79 70 48 57 106 78 44 2670 54 2616 101 2515 2494 154 121 2340 2314 52 2262
is_linear=0
shrinkage=0.1


Tree=26
num_leaves=31
num_cat=0
split_feature=100 71 66 8 83 94 36 97 102 47 17 61 36 46 83 105 106 21 96 100 100 99 45 32 42 90 108 114 108 58
split_gain=7.58928 4.266 6.42529 6.38412 5.28074 6.94985 3.05826 1.99636 1.54163 2.38666 2.18813 1.31905 1.13977 1.42147 0.732108 0.706874 0.689576 0.59874 0.506645 1.66034 0.649632 7.7397 1.3792 0.8693 0.889178 0.558957 0.529794 1.05165 1.69466 0.694863
threshold=26.500000000000004 0.16497656343922104 -1.3395251546380598 1.2312801616133451 0.15967784799870352 16.500000000000004 0.21213984103328351 38.500000000000007 52.500000000000007 -1.2369002909047946 1.4617687905015451 0.0015647345908607752 0.17050167606250052 0.6420691457586617 0.24161535485790803 46.500000000000007 56.500000000000007 0.43767366461222407 102.50000000000001 64.500000000000014 144.50000000000003 158.50000000000003 0.44164594293001752 0.44481696167058155 0.21605000000000002 0.0023346731207811804 154.50000000000003 152.50000000000003 182.50000000000003 0.044039342921305354
decision_type=2 2 2 2 2 2 2 2 2 2 2 2 2 2 2 2 2 2 2 2 2 2 2 2 2 2 2 2 2 2
left_child=1 2 -1 -4 6 -6 -3 -7 9 -2 11 -11 -13 14 -14 -10 -17 -16 -18 -20 21 22 23 25 -25 -21 -22 28 29 -28
right_child=8 4 3 -5 5 7 -8 -9 15 10 -12 12 13 -15 17 16 18 -19 19 20 26 -23 -24 24 -26 -27 27 -29 -30 -31
leaf_value=0.07399814150163106 0.034920576008824776 -0.047834997327828949 0.045713315222944535 -0.017152222034055739 0.056380324125947325 -0.01911372930325311 0.0023925734925325272 0.017991570832914319 -0.018181116827246217 0.019799424867852834 0.032658482436090708 0.012200396228581668 -0.020846275767965789 0.014118769290128156 0.0090604396467097101 0.012231173451222918 -0.0053204111330310347 -0.013767736394786173 0.021865512883911531 0.0098079563118517402 -0.0098598456456481173 0.059488731317899446 0.017019614618685511 0.016652036722945542 -0.0057854778810658243 -0.0075895147748809332 0.012961042752223357 -0.0028209872407663826 0.033148090222052166 -0.0073763359426742506
leaf_weight=28 26 22 35 30 34 29 27 29 27 27 22 34 58 23 20 34 412 27 30 20 96 22 36 38 33 241 28 1587 21 42
leaf_count=28 26 22 35 30 34 29 27 29 27 27 22 34 58 23 20 34 412 27 30 20 96 22 36 38 33 241 28 1587 21 42
internal_value=0 0.0173246 0.03395 0.0166985 0.00635899 0.0204825 -0.0201586 -0.000561079 -0.00139599 0.00633311 0.00281048 -0.000663886 -0.00407444 -0.00839744 -0.0133296 -0.00208283 -0.00191819 -0.00405362 -0.00210279 -0.00149857 -0.00182248 0.00187282 -0.00157161 -0.00358752 0.00622333 -0.00625638 -0.00263486 -0.00222151 0.00823311 0.000758616
internal_weight=0 234 93 65 141 92 49 58 2904 237 211 189 162 128 105 2667 2640 47 2606 2194 2164 390 368 332 71 261 1774 1678 91 70
internal_count=3138 234 93 65 141 92 49 58 2904 237 211 189 162 128 105 2667 2640 47 2606 2194 2164 390 368 332 71 261 1774 1678 91 70
is_linear=0
shrinkage=0.1


Tree=27
num_leaves=31
num_cat=0
split_feature=100 29 22 21 26 37 81 66 106 50 98 58 26 18 29 96 102 56 112 22 75 49 114 45 91 59 77 1 8 2
split_gain=6.14732 3.82113 3.32585 3.71339 4.20915 6.84577 3.68916 2.14953 1.28755 2.19484 1.19277 1.1146 0.853541 3.47978 0.666757 0.615173 1.62742 3.08343 0.668812 0.544871 0.539251 0.61758 0.908349 0.560715 0.443956 0.427155 2.19492 0.573981 0.480849 0.722641
threshold=26.500000000000004 2.1116898405106905 0.65483315295815314 0.43920969910699703 0.32609982311743307 0.58753757541664065 0.51361515578311467 -0.88582546624030634 34.500000000000007 0.5933638562417366 16.500000000000004 0.04348317963592456 2.0493907800165707 0.55561029009304919 0.10311683581426152 58.500000000000007 56.500000000000007 0.66273900864693713 60.500000000000007 0.63337647397181451 -0.99404812310625534 0.40468911311454053 60.500000000000007 0.3974391763394321 0.24911975097404604 0.11592451131577151 0.57882696938424505 1.6201534767932102 1.4118588021078102 0.96132393122950666
decision_type=2 2 2 2 2 2 2 2 2 2 2 2 2 2 2 2 2 2 2 2 2 2 2 2 2 2 2 2 2 2
left_child=1 2 3 6 7 -6 -1 -5 9 11 -10 -2 15 -14 -15 19 17 -17 24 20 23 22 -22 -12 -18 26 -20 28 29 -27
right_child=8 -3 -4 4 5 -7 -8 -9 10 -11 12 -13 13 14 -16 16 18 -19 25 -21 21 -23 -24 -25 -26 27 -28 -29 -30 -31
leaf_value=-0.035912086288242238 0.015234298545867206 0.057392535433173179 -0.023390865574280422 0.022523349660238431 0.070080655638892694 0.0091605556117636822 0.015088444691453432 -0.016887377291917801 0.022132890950888398 0.03512478612649899 -0.0053027623172965839 -0.01357864403840283 0.041845186918296598 0.0059656413691118364 -0.019262322013012388 -0.0097993558117498956 -0.024783058892935514 0.033609358519445069 0.028640312807900567 -0.022909457838395611 -0.030819017310505327 0.00029466759546526843 -0.0079127223636688941 0.015726512776953833 -0.0062008393773188199 -0.0022754717455135335 -0.0021052715395960737 0.012924187242984773 -0.0096442034208150812 0.011130430881024861
leaf_weight=23 25 20 24 31 39 35 37 25 21 26 32 29 22 20 22 30 20 36 28 20 23 49 70 21 36 2086 136 25 86 41
leaf_count=23 25 20 24 31 39 35 37 25 21 26 32 29 22 20 22 30 20 36 28 20 23 49 70 21 36 2086 136 25 86 41
internal_value=0 0.0155922 0.0116856 0.0161163 0.0256139 0.0412671 -0.00446176 0.00492928 -0.00125639 0.011254 -0.0016108 -0.000239319 -0.00178868 0.00962712 -0.00724901 -0.00205543 -0.00161803 0.0138781 -0.00203412 -0.00719028 -0.00557806 -0.00879077 -0.0135777 0.00302959 -0.0128373 -0.00178225 0.00314397 -0.00214325 -0.00231346 -0.00201706
internal_weight=0 234 214 190 130 74 60 56 2904 80 2824 54 2803 64 42 2739 2524 66 2458 215 195 142 93 53 56 2402 164 2238 2213 2127
internal_count=3138 234 214 190 130 74 60 56 2904 80 2824 54 2803 64 42 2739 2524 66 2458 215 195 142 93 53 56 2402 164 2238 2213 2127
is_linear=0
shrinkage=0.1


Tree=28
num_leaves=31
num_cat=0
split_feature=106 71 78 89 99 31 86 86 103 17 10 14 104 86 111 111 101 56 55 114 47 104 108 18 110 100 60 99 101 114
split_gain=4.99031 3.61784 3.76192 4.04047 4.96894 3.4415 3.98034 2.90415 2.71166 2.22153 1.6804 1.50126 1.12268 1.00751 0.715109 0.883959 1.67342 1.90832 0.740122 0.67369 1.74727 0.882426 0.86662 0.612436 0.463289 1.59212 1.37046 1.29601 0.659395 0.845896
threshold=40.500000000000007 0.20245255997135703 78.543553900340655 0.19124490354243254 6.5000000000000009 0.085218804534534773 0.043900231439657954 0.14862422162917802 14.500000000000002 1.6062294503222401 0.59064829778065109 0.60998657073268669 20.500000000000004 0.047443557969784458 30.500000000000004 42.500000000000007 52.500000000000007 0.6805330086580087 0.33954991087344005 56.500000000000007 -0.37400203671849297 60.500000000000007 66.500000000000014 0.62080297382021554 96.500000000000014 100.50000000000001 -0.62991259476625738 108.50000000000001 110.50000000000001 90.500000000000014
decision_type=2 2 2 2 2 2 2 2 2 2 2 2 2 2 2 2 2 2 2 2 2 2 2 2 2 2 2 2 2 2
left_child=1 2 3 5 -5 -1 -7 9 -8 10 -6 12 -12 -13 -2 18 17 -17 -16 20 -18 -21 -23 -22 -24 26 -26 -28 -27 -30
right_child=14 -3 -4 4 7 6 8 -9 -10 -11 11 13 -14 -15 15 16 19 -19 -20 21 23 22 24 -25 25 28 27 -29 29 -31
leaf_value=0.030161380564624612 0.015071030269162015 -0.022790136353658706 0.049817241866279532 0.062953903461280089 -0.022747379993753775 0.0126314714550972 -0.057346731100393379 0.043706046396659481 -0.010620946989015298 0.038207597627548412 -0.020269372026351366 0.037866359731803342 0.0081163781572525431 0.0084168336775082234 -0.0021105530600135144 -0.0015875633662709825 0.031339878811162306 0.037955702648943539 -0.025541129734899318 -0.012083117966540158 -0.013083355651738552 0.016559489476360167 -0.0063947476101726469 0.0095867110310461044 0.032536425775227446 -0.011229888750367786 -0.0090284214878920462 0.022500876697118991 0.01890499068424106 -0.0017585051282609969
leaf_weight=22 26 29 27 23 21 33 23 27 27 21 22 21 38 26 26 26 22 23 28 83 26 26 201 22 24 73 32 22 20 2098
leaf_count=22 26 29 27 23 21 33 23 27 27 21 22 21 38 26 26 26 22 23 28 83 26 26 201 22 24 73 32 22 20 2098
internal_value=0 0.0110778 0.014045 0.0108679 0.0192422 -0.00500335 -0.0143241 0.0135299 -0.0321148 0.00806169 0.00311588 0.00819185 -0.00229173 0.0215751 -0.00143556 -0.00159151 -0.00133796 0.0169736 -0.0142597 -0.00167668 0.00800311 -0.00193941 -0.0016021 -0.00269291 -0.00179327 -0.00138565 0.0126536 0.00381685 -0.00188545 -0.00156338
internal_weight=0 360 331 304 199 105 83 176 50 149 128 107 60 47 2778 2752 2698 49 54 2649 70 2579 2496 48 2470 2269 78 54 2191 2118
internal_count=3138 360 331 304 199 105 83 176 50 149 128 107 60 47 2778 2752 2698 49 54 2649 70 2579 2496 48 2470 2269 78 54 2191 2118
is_linear=0
shrinkage=0.1


Tree=29
num_leaves=31
num_cat=0
split_feature=100 17 59 21 8 24 7 108 91 53 114 47 47 43 31 91 53 59 17 22 102 105 8 100 99 85 23 45 27 41
split_gain=4.26095 3.46636 4.05314 5.12796 4.30832 3.02027 4.58096 1.89541 1.28218 1.00087 1.57931 2.64413 3.95389 1.37126 1.55438 1.15032 1.0614 1.02633 0.998637 0.968395 0.563042 0.571977 0.731882 0.611185 1.79708 1.67187 1.2211 0.562973 0.502954 0.478551
threshold=26.500000000000004 -0.34926716592457591 0.12147390723344752 0.46880862939576207 1.0668936230229902 0.40082491582491603 1.4803401147649302 16.500000000000004 0.25062302028921152 0.57385238513796966 56.500000000000007 -0.22516017760530846 -0.51202739047209089 0.51245000000000007 0.090550890674253606 0.18643136347976602 0.5812316251547156 0.13933284422176803 -0.17577285937557849 0.60812185066422364 34.500000000000007 84.500000000000014 1.4379927694187951 116.50000000000001 120.50000000000001 0.28725041593676004 1.4423309559087703 0.42855990783410153 0.063337832986403761 1.0863350109282552
decision_type=2 2 2 2 2 2 2 2 2 2 2 2 2 2 2 2 2 2 2 2 2 2 2 2 2 2 2 2 2 2
left_child=1 -1 3 4 -3 6 -4 8 -7 -2 11 12 13 14 -11 17 -12 -13 -17 -20 -18 22 27 24 26 -26 29 28 -22 -23
right_child=9 2 5 -5 -6 7 -8 -9 -10 10 16 15 -14 -15 -16 18 20 -19 19 -21 21 23 -24 -25 25 -27 -28 -29 -30 -31
leaf_value=0.041065399512346536 -0.013035181653685869 -0.021988084499278797 -0.0077426614592204226 0.066027539369204774 0.041473262524232272 -0.012288432721979917 0.049088834096556122 0.0026679380098357797 -0.047667089672315692 -0.020905382016843017 0.01663376287324354 -0.0020351775065064431 0.055263595135572052 0.029133929471884458 0.015894003957509995 -0.026279907821762288 0.012673070585286175 0.027952536337432412 0.0074876195460092283 -0.015587805836431443 -0.0042549862661520358 -0.005207176852118591 -0.02481955780647695 -0.0019465770088433793 0.037837184600245495 0.00038095018403096637 0.022175330214113706 0.010336414933077652 -0.017792570866136389 0.0091419361117813323
leaf_weight=37 68 23 37 23 20 20 23 30 21 22 32 25 24 21 24 22 27 21 44 31 163 167 20 2042 26 22 21 22 33 27
leaf_count=37 68 23 37 23 20 20 23 30 21 22 32 25 24 21 24 22 27 21 44 31 163 167 20 2042 26 22 21 22 33 27
internal_value=0 0.0129813 0.00770659 0.0279147 0.00752882 -0.00247462 0.0140427 -0.0164329 -0.0304092 -0.00104601 -0.000758542 0.00711058 0.020436 0.00796045 -0.0017057 -0.00136924 -0.00146622 0.0116549 -0.00754562 -0.00205022 -0.00169159 -0.0018441 -0.00651138 -0.00136219 0.00317515 0.0206697 -0.000730625 -0.00483173 -0.00653427 -0.00321014
internal_weight=0 234 197 66 43 131 60 71 41 2904 2836 234 91 67 46 143 2602 46 97 75 2570 2543 238 2305 263 48 215 218 196 194
internal_count=3138 234 197 66 43 131 60 71 41 2904 2836 234 91 67 46 143 2602 46 97 75 2570 2543 238 2305 263 48 215 218 196 194
is_linear=0
shrinkage=0.1


end of trees

feature_importances:
MAS_last=59
RTP_last=33
WLK_last=27
SEL_last=25
twoP._l=16
threeP.=15
DOK_last=15
TRB._u=14
O_threeP._l=14
CMP_0=14
NRTG=13
STL._l=13
FTr.=13
FTr_u=13
pace=13
DRB.=12
AST._u=12
O_STL._l=12
gini=12
G1_min=12
eFG._l=11
BLK._u=11
O_TPr._u=11
O_threeP.=11
POM_0=11
POM_last=11
STL._u=10
BLK.=10
O_TPr.=10
G1_pts=10
DOL_last=10
O_eFG._u=9
O_TS.=9
O_TS._u=9
O_STL.=9
O_FTr.=9
avg_height=9
MAS_0=9
MOR_last=9
WOB_last=9
eFG.=8
TS._l=8
TRB._l=8
FTr_l=8
twoP._u=8
O_AST._u=8
avg_exp=8
F0_min=8
C0_min=8
PGH_0=8
SAG_last=8
KPK_last=8
ORTG_l=7
DRB._l=7
STL.=7
TOV.=7
O_AST._l=7
O_BLK.=7
O_twoP._u=7
F1_pts=7
BIH_last=7
REW_last=7
CMP_last=7
ORTG_u=6
TS.=6
ORB._u=6
AST.=6
DRB._u=5
AST._l=5
TOV_l=5
O_STL._u=5
O_FTr._l=5
O_threeP._u=5
G0_min=5
G0_pts=5
F0_pts=5
PGH_last=5
DRTG_l=4
DRTG_u=4
BLK._l=4
threeP._l=4
O_eFG.=4
O_TOV._u=4
O_twoP.=4
O_twoP._l=4
C0_pts=4
MOR_0=4
KRA_last=4
ORTG=3
eFG._u=3
ORB.=3
ORB._l=3
TOV_u=3
threePr_l=3
threePr_u=3
O_eFG._l=3
O_AST.=3
O_BLK._l=3
O_TOV.=3
O_TOV._l=3
TS._u=2
TRB.=2
twoP.=2
O_TS._l=2
O_FTr._u=2
top_100_recruit=2
F1_min=2
C1_min=2
threeP._u=1
O_TPr._l=1
C1_pts=1

parameters:
[boosting: gbdt]
[objective: regression]
[metric: l2]
[tree_learner: serial]
[device_type: cpu]
[data: ]
[valid: ]
[num_iterations: 30]
[learning_rate: 0.1]
[num_leaves: 31]
[num_threads: 0]
[deterministic: 0]
[force_col_wise: 0]
[force_row_wise: 0]
[histogram_pool_size: -1]
[max_depth: -1]
[min_data_in_leaf: 20]
[min_sum_hessian_in_leaf: 0.001]
[bagging_fraction: 1]
[pos_bagging_fraction: 1]
[neg_bagging_fraction: 1]
[bagging_freq: 0]
[bagging_seed: 3]
[feature_fraction: 1]
[feature_fraction_bynode: 1]
[feature_fraction_seed: 2]
[extra_trees: 0]
[extra_seed: 6]
[early_stopping_round: 0]
[first_metric_only: 0]
[max_delta_step: 0]
[lambda_l1: 0]
[lambda_l2: 0]
[linear_lambda: 0]
[min_gain_to_split: 0]
[drop_rate: 0.1]
[max_drop: 50]
[skip_drop: 0.5]
[xgboost_dart_mode: 0]
[uniform_drop: 0]
[drop_seed: 4]
[top_rate: 0.2]
[other_rate: 0.1]
[min_data_per_group: 100]
[max_cat_threshold: 32]
[cat_l2: 10]
[cat_smooth: 10]
[max_cat_to_onehot: 4]
[top_k: 20]
[monotone_constraints: ]
[monotone_constraints_method: basic]
[monotone_penalty: 0]
[feature_contri: ]
[forcedsplits_filename: ]
[refit_decay_rate: 0.9]
[cegb_tradeoff: 1]
[cegb_penalty_split: 0]
[cegb_penalty_feature_lazy: ]
[cegb_penalty_feature_coupled: ]
[path_smooth: 0]
[interaction_constraints: ]
[verbosity: 0]
[saved_feature_importance_type: 0]
[linear_tree: 0]
[max_bin: 255]
[max_bin_by_feature: ]
[min_data_in_bin: 3]
[bin_construct_sample_cnt: 200000]
[data_random_seed: 1]
[is_enable_sparse: 1]
[enable_bundle: 1]
[use_missing: 1]
[zero_as_missing: 0]
[feature_pre_filter: 1]
[pre_partition: 0]
[two_round: 0]
[header: 0]
[label_column: ]
[weight_column: ]
[group_column: ]
[ignore_column: ]
[categorical_feature: ]
[forcedbins_filename: ]
[precise_float_parser: 0]
[objective_seed: 5]
[num_class: 1]
[is_unbalance: 0]
[scale_pos_weight: 1]
[sigmoid: 1]
[boost_from_average: 1]
[reg_sqrt: 0]
[alpha: 0.9]
[fair_c: 1]
[poisson_max_delta_step: 0.7]
[tweedie_variance_power: 1.5]
[lambdarank_truncation_level: 30]
[lambdarank_norm: 1]
[label_gain: ]
[eval_at: ]
[multi_error_top_k: 1]
[auc_mu_weights: ]
[num_machines: 1]
[local_listen_port: 12400]
[time_out: 120]
[machine_list_filename: ]
[machines: ]
[gpu_platform_id: -1]
[gpu_device_id: -1]
[gpu_use_dp: 0]
[num_gpu: 1]

end of parameters
